digraph Tree {
0 [label="IsOnlineSale <= 0.5000\ngini = 0.566736181569\nsamples = 9999", shape="box"] ;
1 [label="VehOdo <= 78349.5000\ngini = 0.444297437192\nsamples = 445", shape="box"] ;
0 -> 1 ;
2 [label="MMRCurrentAuctionAveragePrice <= 8058.0000\ngini = 0.393795873835\nsamples = 284", shape="box"] ;
1 -> 2 ;
3 [label="MMRAcquisitionRetailAveragePrice <= 8281.0000\ngini = 0.448516803841\nsamples = 216", shape="box"] ;
2 -> 3 ;
4 [label="MMRCurrentRetailCleanPrice <= 8804.5000\ngini = 0.2990625\nsamples = 80", shape="box"] ;
3 -> 4 ;
5 [label="VehOdo <= 76009.5000\ngini = 0.40805785124\nsamples = 44", shape="box"] ;
4 -> 5 ;
6 [label="MMRCurrentAuctionCleanPrice <= 5434.0000\ngini = 0.352171326591\nsamples = 41", shape="box"] ;
5 -> 6 ;
7 [label="WarrantyCost <= 2190.0000\ngini = 0.302432610125\nsamples = 39", shape="box"] ;
6 -> 7 ;
8 [label="MMRAcquisitonRetailCleanPrice <= 7592.0000\ngini = 0.272853185596\nsamples = 38", shape="box"] ;
7 -> 8 ;
9 [label="gini = 0.0000\nsamples = 15\nvalue = [  0.  15.   0.]", shape="box"] ;
8 -> 9 ;
10 [label="MMRAcquisitionAuctionCleanPrice <= 4230.5000\ngini = 0.404536862004\nsamples = 23", shape="box"] ;
8 -> 10 ;
11 [label="gini = 0.0000\nsamples = 2\nvalue = [ 0.  0.  2.]", shape="box"] ;
10 -> 11 ;
12 [label="MMRAcquisitonRetailCleanPrice <= 7884.5000\ngini = 0.321995464853\nsamples = 21", shape="box"] ;
10 -> 12 ;
13 [label="WarrantyCost <= 874.0000\ngini = 0.5\nsamples = 6", shape="box"] ;
12 -> 13 ;
14 [label="WarrantyCost <= 525.5000\ngini = 0.375\nsamples = 4", shape="box"] ;
13 -> 14 ;
15 [label="gini = 0.0000\nsamples = 1\nvalue = [ 0.  1.  0.]", shape="box"] ;
14 -> 15 ;
16 [label="gini = 0.0000\nsamples = 3\nvalue = [ 0.  0.  3.]", shape="box"] ;
14 -> 16 ;
17 [label="gini = 0.0000\nsamples = 2\nvalue = [ 0.  2.  0.]", shape="box"] ;
13 -> 17 ;
18 [label="VehOdo <= 46097.0000\ngini = 0.124444444444\nsamples = 15", shape="box"] ;
12 -> 18 ;
19 [label="gini = 0.0000\nsamples = 1\nvalue = [ 1.  0.  0.]", shape="box"] ;
18 -> 19 ;
20 [label="gini = 0.0000\nsamples = 14\nvalue = [  0.  14.   0.]", shape="box"] ;
18 -> 20 ;
21 [label="gini = 0.0000\nsamples = 1\nvalue = [ 0.  0.  1.]", shape="box"] ;
7 -> 21 ;
22 [label="gini = 0.0000\nsamples = 2\nvalue = [ 0.  0.  2.]", shape="box"] ;
6 -> 22 ;
23 [label="gini = 0.0000\nsamples = 3\nvalue = [ 0.  0.  3.]", shape="box"] ;
5 -> 23 ;
24 [label="Model <= 1042.0000\ngini = 0.104938271605\nsamples = 36", shape="box"] ;
4 -> 24 ;
25 [label="VehOdo <= 37952.0000\ngini = 0.0555102040816\nsamples = 35", shape="box"] ;
24 -> 25 ;
26 [label="VehOdo <= 32986.5000\ngini = 0.5\nsamples = 2", shape="box"] ;
25 -> 26 ;
27 [label="gini = 0.0000\nsamples = 1\nvalue = [ 0.  1.  0.]", shape="box"] ;
26 -> 27 ;
28 [label="gini = 0.0000\nsamples = 1\nvalue = [ 1.  0.  0.]", shape="box"] ;
26 -> 28 ;
29 [label="gini = 0.0000\nsamples = 33\nvalue = [  0.  33.   0.]", shape="box"] ;
25 -> 29 ;
30 [label="gini = 0.0000\nsamples = 1\nvalue = [ 1.  0.  0.]", shape="box"] ;
24 -> 30 ;
31 [label="MMRAcquisitionRetailAveragePrice <= 8449.0000\ngini = 0.514273356401\nsamples = 136", shape="box"] ;
3 -> 31 ;
32 [label="MMRCurrentAuctionCleanPrice <= 5672.5000\ngini = 0.345679012346\nsamples = 9", shape="box"] ;
31 -> 32 ;
33 [label="gini = 0.0000\nsamples = 2\nvalue = [ 0.  2.  0.]", shape="box"] ;
32 -> 33 ;
34 [label="gini = 0.0000\nsamples = 7\nvalue = [ 0.  0.  7.]", shape="box"] ;
32 -> 34 ;
35 [label="TopThreeAmericanName <= 2.5000\ngini = 0.494016988034\nsamples = 127", shape="box"] ;
31 -> 35 ;
36 [label="MMRCurrentAuctionCleanPrice <= 9575.5000\ngini = 0.425905895078\nsamples = 86", shape="box"] ;
35 -> 36 ;
37 [label="WheelTypeID <= 2.5000\ngini = 0.40447845805\nsamples = 84", shape="box"] ;
36 -> 37 ;
38 [label="Trim <= 13.5000\ngini = 0.392219480331\nsamples = 83", shape="box"] ;
37 -> 38 ;
39 [label="Model <= 831.5000\ngini = 0.5390625\nsamples = 32", shape="box"] ;
38 -> 39 ;
40 [label="SubModel <= 422.5000\ngini = 0.446428571429\nsamples = 28", shape="box"] ;
39 -> 40 ;
41 [label="MMRCurrentAuctionAveragePrice <= 5878.5000\ngini = 0.628099173554\nsamples = 11", shape="box"] ;
40 -> 41 ;
42 [label="gini = 0.0000\nsamples = 3\nvalue = [ 3.  0.  0.]", shape="box"] ;
41 -> 42 ;
43 [label="WheelTypeID <= 1.5000\ngini = 0.53125\nsamples = 8", shape="box"] ;
41 -> 43 ;
44 [label="VehYear <= 2007.5000\ngini = 0.625\nsamples = 4", shape="box"] ;
43 -> 44 ;
45 [label="gini = 0.0000\nsamples = 2\nvalue = [ 0.  0.  2.]", shape="box"] ;
44 -> 45 ;
46 [label="MMRAcquisitionAuctionAveragePrice <= 6972.5000\ngini = 0.5\nsamples = 2", shape="box"] ;
44 -> 46 ;
47 [label="gini = 0.0000\nsamples = 1\nvalue = [ 1.  0.  0.]", shape="box"] ;
46 -> 47 ;
48 [label="gini = 0.0000\nsamples = 1\nvalue = [ 0.  1.  0.]", shape="box"] ;
46 -> 48 ;
49 [label="gini = 0.0000\nsamples = 4\nvalue = [ 0.  4.  0.]", shape="box"] ;
43 -> 49 ;
50 [label="MMRAcquisitonRetailCleanPrice <= 11863.5000\ngini = 0.214532871972\nsamples = 17", shape="box"] ;
40 -> 50 ;
51 [label="MMRCurrentRetailAveragePrice <= 8624.0000\ngini = 0.124444444444\nsamples = 15", shape="box"] ;
50 -> 51 ;
52 [label="VehOdo <= 58771.5000\ngini = 0.444444444444\nsamples = 3", shape="box"] ;
51 -> 52 ;
53 [label="gini = 0.0000\nsamples = 1\nvalue = [ 1.  0.  0.]", shape="box"] ;
52 -> 53 ;
54 [label="gini = 0.0000\nsamples = 2\nvalue = [ 0.  2.  0.]", shape="box"] ;
52 -> 54 ;
55 [label="gini = 0.0000\nsamples = 12\nvalue = [  0.  12.   0.]", shape="box"] ;
51 -> 55 ;
56 [label="SubModel <= 509.0000\ngini = 0.5\nsamples = 2", shape="box"] ;
50 -> 56 ;
57 [label="gini = 0.0000\nsamples = 1\nvalue = [ 0.  1.  0.]", shape="box"] ;
56 -> 57 ;
58 [label="gini = 0.0000\nsamples = 1\nvalue = [ 0.  0.  1.]", shape="box"] ;
56 -> 58 ;
59 [label="VehYear <= 2007.5000\ngini = 0.375\nsamples = 4", shape="box"] ;
39 -> 59 ;
60 [label="gini = 0.0000\nsamples = 3\nvalue = [ 0.  0.  3.]", shape="box"] ;
59 -> 60 ;
61 [label="gini = 0.0000\nsamples = 1\nvalue = [ 1.  0.  0.]", shape="box"] ;
59 -> 61 ;
62 [label="MMRAcquisitionRetailAveragePrice <= 8817.0000\ngini = 0.269896193772\nsamples = 51", shape="box"] ;
38 -> 62 ;
63 [label="MMRAcquisitionRetailAveragePrice <= 8701.0000\ngini = 0.375\nsamples = 4", shape="box"] ;
62 -> 63 ;
64 [label="gini = 0.0000\nsamples = 1\nvalue = [ 0.  1.  0.]", shape="box"] ;
63 -> 64 ;
65 [label="gini = 0.0000\nsamples = 3\nvalue = [ 0.  0.  3.]", shape="box"] ;
63 -> 65 ;
66 [label="SubModel <= 203.0000\ngini = 0.193752829335\nsamples = 47", shape="box"] ;
62 -> 66 ;
67 [label="MMRAcquisitionAuctionAveragePrice <= 6835.5000\ngini = 0.489795918367\nsamples = 7", shape="box"] ;
66 -> 67 ;
68 [label="gini = 0.0000\nsamples = 4\nvalue = [ 0.  4.  0.]", shape="box"] ;
67 -> 68 ;
69 [label="gini = 0.0000\nsamples = 3\nvalue = [ 0.  0.  3.]", shape="box"] ;
67 -> 69 ;
70 [label="WarrantyCost <= 1857.0000\ngini = 0.09625\nsamples = 40", shape="box"] ;
66 -> 70 ;
71 [label="MMRAcquisitionRetailAveragePrice <= 8899.5000\ngini = 0.0512465373961\nsamples = 38", shape="box"] ;
70 -> 71 ;
72 [label="VehOdo <= 62043.5000\ngini = 0.5\nsamples = 2", shape="box"] ;
71 -> 72 ;
73 [label="gini = 0.0000\nsamples = 1\nvalue = [ 0.  1.  0.]", shape="box"] ;
72 -> 73 ;
74 [label="gini = 0.0000\nsamples = 1\nvalue = [ 1.  0.  0.]", shape="box"] ;
72 -> 74 ;
75 [label="gini = 0.0000\nsamples = 36\nvalue = [  0.  36.   0.]", shape="box"] ;
71 -> 75 ;
76 [label="Model <= 212.0000\ngini = 0.5\nsamples = 2", shape="box"] ;
70 -> 76 ;
77 [label="gini = 0.0000\nsamples = 1\nvalue = [ 0.  1.  0.]", shape="box"] ;
76 -> 77 ;
78 [label="gini = 0.0000\nsamples = 1\nvalue = [ 0.  0.  1.]", shape="box"] ;
76 -> 78 ;
79 [label="gini = 0.0000\nsamples = 1\nvalue = [ 1.  0.  0.]", shape="box"] ;
37 -> 79 ;
80 [label="WarrantyCost <= 941.5000\ngini = 0.5\nsamples = 2", shape="box"] ;
36 -> 80 ;
81 [label="gini = 0.0000\nsamples = 1\nvalue = [ 0.  0.  1.]", shape="box"] ;
80 -> 81 ;
82 [label="gini = 0.0000\nsamples = 1\nvalue = [ 1.  0.  0.]", shape="box"] ;
80 -> 82 ;
83 [label="SubModel <= 592.0000\ngini = 0.560380725758\nsamples = 41", shape="box"] ;
35 -> 83 ;
84 [label="MMRAcquisitionAuctionCleanPrice <= 9850.5000\ngini = 0.297520661157\nsamples = 11", shape="box"] ;
83 -> 84 ;
85 [label="MMRAcquisitionAuctionCleanPrice <= 8241.0000\ngini = 0.18\nsamples = 10", shape="box"] ;
84 -> 85 ;
86 [label="MMRAcquisitionAuctionAveragePrice <= 5772.0000\ngini = 0.5\nsamples = 2", shape="box"] ;
85 -> 86 ;
87 [label="gini = 0.0000\nsamples = 1\nvalue = [ 0.  1.  0.]", shape="box"] ;
86 -> 87 ;
88 [label="gini = 0.0000\nsamples = 1\nvalue = [ 0.  0.  1.]", shape="box"] ;
86 -> 88 ;
89 [label="gini = 0.0000\nsamples = 8\nvalue = [ 0.  8.  0.]", shape="box"] ;
85 -> 89 ;
90 [label="gini = 0.0000\nsamples = 1\nvalue = [ 0.  0.  1.]", shape="box"] ;
84 -> 90 ;
91 [label="VehOdo <= 44135.0000\ngini = 0.58\nsamples = 30", shape="box"] ;
83 -> 91 ;
92 [label="gini = 0.0000\nsamples = 4\nvalue = [ 0.  4.  0.]", shape="box"] ;
91 -> 92 ;
93 [label="MMRCurrentAuctionAveragePrice <= 7754.5000\ngini = 0.559171597633\nsamples = 26", shape="box"] ;
91 -> 93 ;
94 [label="VehOdo <= 58460.5000\ngini = 0.53125\nsamples = 24", shape="box"] ;
93 -> 94 ;
95 [label="gini = 0.0000\nsamples = 6\nvalue = [ 0.  0.  6.]", shape="box"] ;
94 -> 95 ;
96 [label="MMRAcquisitionAuctionCleanPrice <= 6724.0000\ngini = 0.611111111111\nsamples = 18", shape="box"] ;
94 -> 96 ;
97 [label="MMRCurrentAuctionCleanPrice <= 7344.5000\ngini = 0.444444444444\nsamples = 3", shape="box"] ;
96 -> 97 ;
98 [label="gini = 0.0000\nsamples = 2\nvalue = [ 0.  2.  0.]", shape="box"] ;
97 -> 98 ;
99 [label="gini = 0.0000\nsamples = 1\nvalue = [ 1.  0.  0.]", shape="box"] ;
97 -> 99 ;
100 [label="MMRCurrentRetailCleanPrice <= 11333.5000\ngini = 0.551111111111\nsamples = 15", shape="box"] ;
96 -> 100 ;
101 [label="gini = 0.0000\nsamples = 4\nvalue = [ 0.  0.  4.]", shape="box"] ;
100 -> 101 ;
102 [label="MMRAcquisitionRetailAveragePrice <= 10729.0000\ngini = 0.628099173554\nsamples = 11", shape="box"] ;
100 -> 102 ;
103 [label="gini = 0.0000\nsamples = 2\nvalue = [ 2.  0.  0.]", shape="box"] ;
102 -> 103 ;
104 [label="MMRCurrentAuctionCleanPrice <= 8404.5000\ngini = 0.493827160494\nsamples = 9", shape="box"] ;
102 -> 104 ;
105 [label="WarrantyCost <= 970.0000\ngini = 0.32\nsamples = 5", shape="box"] ;
104 -> 105 ;
106 [label="gini = 0.0000\nsamples = 1\nvalue = [ 0.  0.  1.]", shape="box"] ;
105 -> 106 ;
107 [label="gini = 0.0000\nsamples = 4\nvalue = [ 0.  4.  0.]", shape="box"] ;
105 -> 107 ;
108 [label="gini = 0.0000\nsamples = 4\nvalue = [ 0.  0.  4.]", shape="box"] ;
104 -> 108 ;
109 [label="gini = 0.0000\nsamples = 2\nvalue = [ 0.  2.  0.]", shape="box"] ;
93 -> 109 ;
110 [label="VehYear <= 2004.5000\ngini = 0.164359861592\nsamples = 68", shape="box"] ;
2 -> 110 ;
111 [label="Nationality <= 2.0000\ngini = 0.5\nsamples = 2", shape="box"] ;
110 -> 111 ;
112 [label="gini = 0.0000\nsamples = 1\nvalue = [ 0.  1.  0.]", shape="box"] ;
111 -> 112 ;
113 [label="gini = 0.0000\nsamples = 1\nvalue = [ 0.  0.  1.]", shape="box"] ;
111 -> 113 ;
114 [label="MMRAcquisitonRetailCleanPrice <= 10938.0000\ngini = 0.142791551882\nsamples = 66", shape="box"] ;
110 -> 114 ;
115 [label="MMRAcquisitionRetailAveragePrice <= 9146.0000\ngini = 0.5\nsamples = 2", shape="box"] ;
114 -> 115 ;
116 [label="gini = 0.0000\nsamples = 1\nvalue = [ 0.  1.  0.]", shape="box"] ;
115 -> 116 ;
117 [label="gini = 0.0000\nsamples = 1\nvalue = [ 0.  0.  1.]", shape="box"] ;
115 -> 117 ;
118 [label="SubModel <= 836.0000\ngini = 0.119140625\nsamples = 64", shape="box"] ;
114 -> 118 ;
119 [label="Color <= 12.5000\ngini = 0.0961111111111\nsamples = 60", shape="box"] ;
118 -> 119 ;
120 [label="MMRCurrentAuctionCleanPrice <= 9567.0000\ngini = 0.0695153061224\nsamples = 56", shape="box"] ;
119 -> 120 ;
121 [label="MMRCurrentRetailCleanPrice <= 13158.5000\ngini = 0.32\nsamples = 5", shape="box"] ;
120 -> 121 ;
122 [label="gini = 0.0000\nsamples = 4\nvalue = [ 0.  4.  0.]", shape="box"] ;
121 -> 122 ;
123 [label="gini = 0.0000\nsamples = 1\nvalue = [ 0.  0.  1.]", shape="box"] ;
121 -> 123 ;
124 [label="VehOdo <= 55831.5000\ngini = 0.0384467512495\nsamples = 51", shape="box"] ;
120 -> 124 ;
125 [label="Color <= 9.0000\ngini = 0.277777777778\nsamples = 6", shape="box"] ;
124 -> 125 ;
126 [label="gini = 0.0000\nsamples = 5\nvalue = [ 0.  5.  0.]", shape="box"] ;
125 -> 126 ;
127 [label="gini = 0.0000\nsamples = 1\nvalue = [ 1.  0.  0.]", shape="box"] ;
125 -> 127 ;
128 [label="gini = 0.0000\nsamples = 45\nvalue = [  0.  45.   0.]", shape="box"] ;
124 -> 128 ;
129 [label="SubModel <= 364.0000\ngini = 0.375\nsamples = 4", shape="box"] ;
119 -> 129 ;
130 [label="gini = 0.0000\nsamples = 3\nvalue = [ 0.  3.  0.]", shape="box"] ;
129 -> 130 ;
131 [label="gini = 0.0000\nsamples = 1\nvalue = [ 0.  0.  1.]", shape="box"] ;
129 -> 131 ;
132 [label="MMRCurrentAuctionCleanPrice <= 10436.5000\ngini = 0.375\nsamples = 4", shape="box"] ;
118 -> 132 ;
133 [label="MMRAcquisitionAuctionCleanPrice <= 10466.5000\ngini = 0.5\nsamples = 2", shape="box"] ;
132 -> 133 ;
134 [label="gini = 0.0000\nsamples = 1\nvalue = [ 0.  1.  0.]", shape="box"] ;
133 -> 134 ;
135 [label="gini = 0.0000\nsamples = 1\nvalue = [ 1.  0.  0.]", shape="box"] ;
133 -> 135 ;
136 [label="gini = 0.0000\nsamples = 2\nvalue = [ 0.  2.  0.]", shape="box"] ;
132 -> 136 ;
137 [label="SubModel <= 272.5000\ngini = 0.506924887157\nsamples = 161", shape="box"] ;
1 -> 137 ;
138 [label="MMRAcquisitionAuctionAveragePrice <= 3368.0000\ngini = 0.308864265928\nsamples = 38", shape="box"] ;
137 -> 138 ;
139 [label="gini = 0.0000\nsamples = 3\nvalue = [ 0.  0.  3.]", shape="box"] ;
138 -> 139 ;
140 [label="Make <= 24.5000\ngini = 0.207346938776\nsamples = 35", shape="box"] ;
138 -> 140 ;
141 [label="Nationality <= 0.5000\ngini = 0.126666666667\nsamples = 30", shape="box"] ;
140 -> 141 ;
142 [label="SubModel <= 220.0000\ngini = 0.444444444444\nsamples = 3", shape="box"] ;
141 -> 142 ;
143 [label="gini = 0.0000\nsamples = 2\nvalue = [ 0.  2.  0.]", shape="box"] ;
142 -> 143 ;
144 [label="gini = 0.0000\nsamples = 1\nvalue = [ 0.  0.  1.]", shape="box"] ;
142 -> 144 ;
145 [label="Trim <= 3.0000\ngini = 0.0713305898491\nsamples = 27", shape="box"] ;
141 -> 145 ;
146 [label="MMRCurrentRetailCleanPrice <= 12948.0000\ngini = 0.444444444444\nsamples = 3", shape="box"] ;
145 -> 146 ;
147 [label="gini = 0.0000\nsamples = 1\nvalue = [ 1.  0.  0.]", shape="box"] ;
146 -> 147 ;
148 [label="gini = 0.0000\nsamples = 2\nvalue = [ 0.  2.  0.]", shape="box"] ;
146 -> 148 ;
149 [label="gini = 0.0000\nsamples = 24\nvalue = [  0.  24.   0.]", shape="box"] ;
145 -> 149 ;
150 [label="MMRAcquisitionAuctionAveragePrice <= 7487.5000\ngini = 0.48\nsamples = 5", shape="box"] ;
140 -> 150 ;
151 [label="Model <= 456.0000\ngini = 0.444444444444\nsamples = 3", shape="box"] ;
150 -> 151 ;
152 [label="gini = 0.0000\nsamples = 1\nvalue = [ 0.  1.  0.]", shape="box"] ;
151 -> 152 ;
153 [label="gini = 0.0000\nsamples = 2\nvalue = [ 0.  0.  2.]", shape="box"] ;
151 -> 153 ;
154 [label="gini = 0.0000\nsamples = 2\nvalue = [ 0.  2.  0.]", shape="box"] ;
150 -> 154 ;
155 [label="MMRAcquisitonRetailCleanPrice <= 10989.0000\ngini = 0.5388327054\nsamples = 123", shape="box"] ;
137 -> 155 ;
156 [label="VehYear <= 2003.5000\ngini = 0.451831332718\nsamples = 57", shape="box"] ;
155 -> 156 ;
157 [label="TopThreeAmericanName <= 1.5000\ngini = 0.512396694215\nsamples = 11", shape="box"] ;
156 -> 157 ;
158 [label="gini = 0.0000\nsamples = 5\nvalue = [ 0.  0.  5.]", shape="box"] ;
157 -> 158 ;
159 [label="SubModel <= 313.0000\ngini = 0.611111111111\nsamples = 6", shape="box"] ;
157 -> 159 ;
160 [label="gini = 0.0000\nsamples = 1\nvalue = [ 1.  0.  0.]", shape="box"] ;
159 -> 160 ;
161 [label="MMRCurrentAuctionAveragePrice <= 3080.5000\ngini = 0.48\nsamples = 5", shape="box"] ;
159 -> 161 ;
162 [label="gini = 0.0000\nsamples = 2\nvalue = [ 0.  2.  0.]", shape="box"] ;
161 -> 162 ;
163 [label="Make <= 17.5000\ngini = 0.444444444444\nsamples = 3", shape="box"] ;
161 -> 163 ;
164 [label="gini = 0.0000\nsamples = 2\nvalue = [ 0.  0.  2.]", shape="box"] ;
163 -> 164 ;
165 [label="gini = 0.0000\nsamples = 1\nvalue = [ 0.  1.  0.]", shape="box"] ;
163 -> 165 ;
166 [label="Model <= 914.0000\ngini = 0.348771266541\nsamples = 46", shape="box"] ;
156 -> 166 ;
167 [label="VehOdo <= 91827.5000\ngini = 0.26125\nsamples = 40", shape="box"] ;
166 -> 167 ;
168 [label="Color <= 0.5000\ngini = 0.197224251278\nsamples = 37", shape="box"] ;
167 -> 168 ;
169 [label="Model <= 637.0000\ngini = 0.611111111111\nsamples = 6", shape="box"] ;
168 -> 169 ;
170 [label="gini = 0.0000\nsamples = 2\nvalue = [ 0.  0.  2.]", shape="box"] ;
169 -> 170 ;
171 [label="MMRCurrentAuctionCleanPrice <= 6703.5000\ngini = 0.375\nsamples = 4", shape="box"] ;
169 -> 171 ;
172 [label="gini = 0.0000\nsamples = 3\nvalue = [ 0.  3.  0.]", shape="box"] ;
171 -> 172 ;
173 [label="gini = 0.0000\nsamples = 1\nvalue = [ 1.  0.  0.]", shape="box"] ;
171 -> 173 ;
174 [label="WarrantyCost <= 581.5000\ngini = 0.0624349635796\nsamples = 31", shape="box"] ;
168 -> 174 ;
175 [label="gini = 0.0000\nsamples = 1\nvalue = [ 0.  0.  1.]", shape="box"] ;
174 -> 175 ;
176 [label="gini = 0.0000\nsamples = 30\nvalue = [  0.  30.   0.]", shape="box"] ;
174 -> 176 ;
177 [label="Color <= 5.5000\ngini = 0.444444444444\nsamples = 3", shape="box"] ;
167 -> 177 ;
178 [label="gini = 0.0000\nsamples = 1\nvalue = [ 0.  1.  0.]", shape="box"] ;
177 -> 178 ;
179 [label="gini = 0.0000\nsamples = 2\nvalue = [ 0.  0.  2.]", shape="box"] ;
177 -> 179 ;
180 [label="VehOdo <= 90457.0000\ngini = 0.444444444444\nsamples = 6", shape="box"] ;
166 -> 180 ;
181 [label="gini = 0.0000\nsamples = 4\nvalue = [ 0.  0.  4.]", shape="box"] ;
180 -> 181 ;
182 [label="gini = 0.0000\nsamples = 2\nvalue = [ 0.  2.  0.]", shape="box"] ;
180 -> 182 ;
183 [label="MMRAcquisitonRetailCleanPrice <= 17240.0000\ngini = 0.566115702479\nsamples = 66", shape="box"] ;
155 -> 183 ;
184 [label="MMRAcquisitonRetailCleanPrice <= 11308.5000\ngini = 0.563289438323\nsamples = 61", shape="box"] ;
183 -> 184 ;
185 [label="Color <= 11.0000\ngini = 0.375\nsamples = 4", shape="box"] ;
184 -> 185 ;
186 [label="gini = 0.0000\nsamples = 3\nvalue = [ 3.  0.  0.]", shape="box"] ;
185 -> 186 ;
187 [label="gini = 0.0000\nsamples = 1\nvalue = [ 0.  0.  1.]", shape="box"] ;
185 -> 187 ;
188 [label="MMRCurrentAuctionAveragePrice <= 10207.0000\ngini = 0.525700215451\nsamples = 57", shape="box"] ;
184 -> 188 ;
189 [label="Model <= 86.0000\ngini = 0.53550295858\nsamples = 52", shape="box"] ;
188 -> 189 ;
190 [label="gini = 0.0000\nsamples = 5\nvalue = [ 0.  5.  0.]", shape="box"] ;
189 -> 190 ;
191 [label="MMRCurrentRetailCleanPrice <= 11076.5000\ngini = 0.528746038932\nsamples = 47", shape="box"] ;
189 -> 191 ;
192 [label="gini = 0.0000\nsamples = 3\nvalue = [ 0.  3.  0.]", shape="box"] ;
191 -> 192 ;
193 [label="MMRCurrentRetailCleanPrice <= 12692.5000\ngini = 0.51652892562\nsamples = 44", shape="box"] ;
191 -> 193 ;
194 [label="VehOdo <= 93227.5000\ngini = 0.14201183432\nsamples = 13", shape="box"] ;
193 -> 194 ;
195 [label="gini = 0.0000\nsamples = 12\nvalue = [  0.   0.  12.]", shape="box"] ;
194 -> 195 ;
196 [label="gini = 0.0000\nsamples = 1\nvalue = [ 0.  1.  0.]", shape="box"] ;
194 -> 196 ;
197 [label="MMRAcquisitionRetailAveragePrice <= 11810.5000\ngini = 0.557752341311\nsamples = 31", shape="box"] ;
193 -> 197 ;
198 [label="WarrantyCost <= 918.0000\ngini = 0.429752066116\nsamples = 11", shape="box"] ;
197 -> 198 ;
199 [label="gini = 0.0000\nsamples = 2\nvalue = [ 0.  0.  2.]", shape="box"] ;
198 -> 199 ;
200 [label="MMRCurrentRetailCleanPrice <= 12732.5000\ngini = 0.197530864198\nsamples = 9", shape="box"] ;
198 -> 200 ;
201 [label="gini = 0.0000\nsamples = 1\nvalue = [ 1.  0.  0.]", shape="box"] ;
200 -> 201 ;
202 [label="gini = 0.0000\nsamples = 8\nvalue = [ 0.  8.  0.]", shape="box"] ;
200 -> 202 ;
203 [label="MMRAcquisitionAuctionAveragePrice <= 8768.5000\ngini = 0.515\nsamples = 20", shape="box"] ;
197 -> 203 ;
204 [label="MMRAcquisitionAuctionCleanPrice <= 8675.0000\ngini = 0.277777777778\nsamples = 12", shape="box"] ;
203 -> 204 ;
205 [label="gini = 0.0000\nsamples = 1\nvalue = [ 0.  1.  0.]", shape="box"] ;
204 -> 205 ;
206 [label="Trim <= 1.5000\ngini = 0.165289256198\nsamples = 11", shape="box"] ;
204 -> 206 ;
207 [label="gini = 0.0000\nsamples = 1\nvalue = [ 0.  1.  0.]", shape="box"] ;
206 -> 207 ;
208 [label="gini = 0.0000\nsamples = 10\nvalue = [  0.   0.  10.]", shape="box"] ;
206 -> 208 ;
209 [label="WarrantyCost <= 2063.0000\ngini = 0.53125\nsamples = 8", shape="box"] ;
203 -> 209 ;
210 [label="WarrantyCost <= 1113.0000\ngini = 0.277777777778\nsamples = 6", shape="box"] ;
209 -> 210 ;
211 [label="gini = 0.0000\nsamples = 1\nvalue = [ 1.  0.  0.]", shape="box"] ;
210 -> 211 ;
212 [label="gini = 0.0000\nsamples = 5\nvalue = [ 0.  5.  0.]", shape="box"] ;
210 -> 212 ;
213 [label="gini = 0.0000\nsamples = 2\nvalue = [ 0.  0.  2.]", shape="box"] ;
209 -> 213 ;
214 [label="gini = 0.0000\nsamples = 5\nvalue = [ 0.  0.  5.]", shape="box"] ;
188 -> 214 ;
215 [label="gini = 0.0000\nsamples = 5\nvalue = [ 0.  5.  0.]", shape="box"] ;
183 -> 215 ;
216 [label="MMRAcquisitonRetailCleanPrice <= 10920.5000\ngini = 0.560851818179\nsamples = 9554", shape="box"] ;
0 -> 216 ;
217 [label="MMRAcquisitionAuctionAveragePrice <= 5455.5000\ngini = 0.530233441113\nsamples = 6048", shape="box"] ;
216 -> 217 ;
218 [label="MMRCurrentRetailCleanPrice <= 7788.5000\ngini = 0.553800090258\nsamples = 4012", shape="box"] ;
217 -> 218 ;
219 [label="MMRCurrentAuctionCleanPrice <= 4708.5000\ngini = 0.504508521792\nsamples = 2278", shape="box"] ;
218 -> 219 ;
220 [label="MMRCurrentRetailAveragePrice <= 4337.0000\ngini = 0.545975266457\nsamples = 1437", shape="box"] ;
219 -> 220 ;
221 [label="SubModel <= 790.0000\ngini = 0.459768203578\nsamples = 630", shape="box"] ;
220 -> 221 ;
222 [label="Color <= 7.5000\ngini = 0.450702721176\nsamples = 612", shape="box"] ;
221 -> 222 ;
223 [label="Model <= 766.5000\ngini = 0.407188365651\nsamples = 380", shape="box"] ;
222 -> 223 ;
224 [label="VehOdo <= 66383.5000\ngini = 0.445878959657\nsamples = 283", shape="box"] ;
223 -> 224 ;
225 [label="VehOdo <= 66147.0000\ngini = 0.499056466831\nsamples = 83", shape="box"] ;
224 -> 225 ;
226 [label="SubModel <= 619.0000\ngini = 0.481653581157\nsamples = 79", shape="box"] ;
225 -> 226 ;
227 [label="TopThreeAmericanName <= 0.5000\ngini = 0.51652892562\nsamples = 66", shape="box"] ;
226 -> 227 ;
228 [label="Trim <= 34.0000\ngini = 0.46875\nsamples = 16", shape="box"] ;
227 -> 228 ;
229 [label="MMRAcquisitionRetailAveragePrice <= 4213.5000\ngini = 0.408163265306\nsamples = 7", shape="box"] ;
228 -> 229 ;
230 [label="gini = 0.0000\nsamples = 4\nvalue = [ 0.  0.  4.]", shape="box"] ;
229 -> 230 ;
231 [label="MMRAcquisitionRetailAveragePrice <= 4479.5000\ngini = 0.444444444444\nsamples = 3", shape="box"] ;
229 -> 231 ;
232 [label="gini = 0.0000\nsamples = 2\nvalue = [ 0.  2.  0.]", shape="box"] ;
231 -> 232 ;
233 [label="gini = 0.0000\nsamples = 1\nvalue = [ 0.  0.  1.]", shape="box"] ;
231 -> 233 ;
234 [label="Color <= 5.0000\ngini = 0.197530864198\nsamples = 9", shape="box"] ;
228 -> 234 ;
235 [label="gini = 0.0000\nsamples = 8\nvalue = [ 0.  8.  0.]", shape="box"] ;
234 -> 235 ;
236 [label="gini = 0.0000\nsamples = 1\nvalue = [ 0.  0.  1.]", shape="box"] ;
234 -> 236 ;
237 [label="VehOdo <= 33556.0000\ngini = 0.4824\nsamples = 50", shape="box"] ;
227 -> 237 ;
238 [label="gini = 0.0000\nsamples = 1\nvalue = [ 1.  0.  0.]", shape="box"] ;
237 -> 238 ;
239 [label="WarrantyCost <= 956.5000\ngini = 0.463140358184\nsamples = 49", shape="box"] ;
237 -> 239 ;
240 [label="Make <= 20.0000\ngini = 0.272189349112\nsamples = 13", shape="box"] ;
239 -> 240 ;
241 [label="VehOdo <= 64356.0000\ngini = 0.152777777778\nsamples = 12", shape="box"] ;
240 -> 241 ;
242 [label="gini = 0.0000\nsamples = 11\nvalue = [  0.   0.  11.]", shape="box"] ;
241 -> 242 ;
243 [label="gini = 0.0000\nsamples = 1\nvalue = [ 0.  1.  0.]", shape="box"] ;
241 -> 243 ;
244 [label="gini = 0.0000\nsamples = 1\nvalue = [ 1.  0.  0.]", shape="box"] ;
240 -> 244 ;
245 [label="Make <= 6.5000\ngini = 0.49537037037\nsamples = 36", shape="box"] ;
239 -> 245 ;
246 [label="gini = 0.0000\nsamples = 2\nvalue = [ 0.  2.  0.]", shape="box"] ;
245 -> 246 ;
247 [label="MMRCurrentAuctionAveragePrice <= 2125.0000\ngini = 0.475778546713\nsamples = 34", shape="box"] ;
245 -> 247 ;
248 [label="VehOdo <= 60508.0000\ngini = 0.59375\nsamples = 8", shape="box"] ;
247 -> 248 ;
249 [label="MMRCurrentAuctionCleanPrice <= 2721.0000\ngini = 0.56\nsamples = 5", shape="box"] ;
248 -> 249 ;
250 [label="Model <= 96.0000\ngini = 0.375\nsamples = 4", shape="box"] ;
249 -> 250 ;
251 [label="gini = 0.0000\nsamples = 1\nvalue = [ 0.  1.  0.]", shape="box"] ;
250 -> 251 ;
252 [label="gini = 0.0000\nsamples = 3\nvalue = [ 0.  0.  3.]", shape="box"] ;
250 -> 252 ;
253 [label="gini = 0.0000\nsamples = 1\nvalue = [ 1.  0.  0.]", shape="box"] ;
249 -> 253 ;
254 [label="gini = 0.0000\nsamples = 3\nvalue = [ 0.  3.  0.]", shape="box"] ;
248 -> 254 ;
255 [label="WarrantyCost <= 1688.5000\ngini = 0.39349112426\nsamples = 26", shape="box"] ;
247 -> 255 ;
256 [label="TopThreeAmericanName <= 1.5000\ngini = 0.465373961219\nsamples = 19", shape="box"] ;
255 -> 256 ;
257 [label="MMRCurrentRetailCleanPrice <= 5152.5000\ngini = 0.46875\nsamples = 8", shape="box"] ;
256 -> 257 ;
258 [label="MMRAcquisitionRetailAveragePrice <= 4192.0000\ngini = 0.48\nsamples = 5", shape="box"] ;
257 -> 258 ;
259 [label="VehOdo <= 64811.5000\ngini = 0.444444444444\nsamples = 3", shape="box"] ;
258 -> 259 ;
260 [label="gini = 0.0000\nsamples = 2\nvalue = [ 0.  2.  0.]", shape="box"] ;
259 -> 260 ;
261 [label="gini = 0.0000\nsamples = 1\nvalue = [ 0.  0.  1.]", shape="box"] ;
259 -> 261 ;
262 [label="gini = 0.0000\nsamples = 2\nvalue = [ 0.  0.  2.]", shape="box"] ;
258 -> 262 ;
263 [label="gini = 0.0000\nsamples = 3\nvalue = [ 0.  3.  0.]", shape="box"] ;
257 -> 263 ;
264 [label="Size <= 5.5000\ngini = 0.297520661157\nsamples = 11", shape="box"] ;
256 -> 264 ;
265 [label="Color <= 3.0000\ngini = 0.5\nsamples = 4", shape="box"] ;
264 -> 265 ;
266 [label="gini = 0.0000\nsamples = 2\nvalue = [ 0.  0.  2.]", shape="box"] ;
265 -> 266 ;
267 [label="gini = 0.0000\nsamples = 2\nvalue = [ 0.  2.  0.]", shape="box"] ;
265 -> 267 ;
268 [label="gini = 0.0000\nsamples = 7\nvalue = [ 0.  0.  7.]", shape="box"] ;
264 -> 268 ;
269 [label="gini = 0.0000\nsamples = 7\nvalue = [ 0.  0.  7.]", shape="box"] ;
255 -> 269 ;
270 [label="VehOdo <= 64230.5000\ngini = 0.14201183432\nsamples = 13", shape="box"] ;
226 -> 270 ;
271 [label="gini = 0.0000\nsamples = 12\nvalue = [  0.   0.  12.]", shape="box"] ;
270 -> 271 ;
272 [label="gini = 0.0000\nsamples = 1\nvalue = [ 0.  1.  0.]", shape="box"] ;
270 -> 272 ;
273 [label="gini = 0.0000\nsamples = 4\nvalue = [ 0.  4.  0.]", shape="box"] ;
225 -> 273 ;
274 [label="Model <= 760.5000\ngini = 0.4114\nsamples = 200", shape="box"] ;
224 -> 274 ;
275 [label="VehOdo <= 81079.0000\ngini = 0.4032241608\nsamples = 198", shape="box"] ;
274 -> 275 ;
276 [label="Make <= 31.0000\ngini = 0.30195473251\nsamples = 108", shape="box"] ;
275 -> 276 ;
277 [label="Make <= 20.0000\ngini = 0.279992880028\nsamples = 106", shape="box"] ;
276 -> 277 ;
278 [label="Nationality <= 0.5000\ngini = 0.164792387543\nsamples = 68", shape="box"] ;
277 -> 278 ;
279 [label="gini = 0.0000\nsamples = 1\nvalue = [ 0.  1.  0.]", shape="box"] ;
278 -> 279 ;
280 [label="SubModel <= 607.0000\ngini = 0.140788594342\nsamples = 67", shape="box"] ;
278 -> 280 ;
281 [label="Model <= 51.0000\ngini = 0.0992865636147\nsamples = 58", shape="box"] ;
280 -> 281 ;
282 [label="MMRCurrentAuctionAveragePrice <= 1059.0000\ngini = 0.5\nsamples = 2", shape="box"] ;
281 -> 282 ;
283 [label="gini = 0.0000\nsamples = 1\nvalue = [ 1.  0.  0.]", shape="box"] ;
282 -> 283 ;
284 [label="gini = 0.0000\nsamples = 1\nvalue = [ 0.  0.  1.]", shape="box"] ;
282 -> 284 ;
285 [label="VehOdo <= 78407.5000\ngini = 0.0688775510204\nsamples = 56", shape="box"] ;
281 -> 285 ;
286 [label="WarrantyCost <= 707.0000\ngini = 0.0384467512495\nsamples = 51", shape="box"] ;
285 -> 286 ;
287 [label="MMRCurrentAuctionCleanPrice <= 3310.5000\ngini = 0.277777777778\nsamples = 6", shape="box"] ;
286 -> 287 ;
288 [label="gini = 0.0000\nsamples = 1\nvalue = [ 0.  1.  0.]", shape="box"] ;
287 -> 288 ;
289 [label="gini = 0.0000\nsamples = 5\nvalue = [ 0.  0.  5.]", shape="box"] ;
287 -> 289 ;
290 [label="gini = 0.0000\nsamples = 45\nvalue = [  0.   0.  45.]", shape="box"] ;
286 -> 290 ;
291 [label="MMRCurrentRetailCleanPrice <= 4810.5000\ngini = 0.32\nsamples = 5", shape="box"] ;
285 -> 291 ;
292 [label="gini = 0.0000\nsamples = 1\nvalue = [ 0.  1.  0.]", shape="box"] ;
291 -> 292 ;
293 [label="gini = 0.0000\nsamples = 4\nvalue = [ 0.  0.  4.]", shape="box"] ;
291 -> 293 ;
294 [label="MMRAcquisitonRetailCleanPrice <= 3786.5000\ngini = 0.345679012346\nsamples = 9", shape="box"] ;
280 -> 294 ;
295 [label="gini = 0.0000\nsamples = 2\nvalue = [ 2.  0.  0.]", shape="box"] ;
294 -> 295 ;
296 [label="gini = 0.0000\nsamples = 7\nvalue = [ 0.  0.  7.]", shape="box"] ;
294 -> 296 ;
297 [label="MMRCurrentRetailAveragePrice <= 4257.0000\ngini = 0.436288088643\nsamples = 38", shape="box"] ;
277 -> 297 ;
298 [label="MMRCurrentAuctionCleanPrice <= 4605.5000\ngini = 0.407596785975\nsamples = 37", shape="box"] ;
297 -> 298 ;
299 [label="MMRCurrentAuctionCleanPrice <= 4318.5000\ngini = 0.387345679012\nsamples = 36", shape="box"] ;
298 -> 299 ;
300 [label="Trim <= 18.5000\ngini = 0.456632653061\nsamples = 28", shape="box"] ;
299 -> 300 ;
301 [label="gini = 0.0000\nsamples = 1\nvalue = [ 1.  0.  0.]", shape="box"] ;
300 -> 301 ;
302 [label="Color <= 0.5000\ngini = 0.417009602195\nsamples = 27", shape="box"] ;
300 -> 302 ;
303 [label="Model <= 211.0000\ngini = 0.18\nsamples = 10", shape="box"] ;
302 -> 303 ;
304 [label="MMRAcquisitionRetailAveragePrice <= 3099.0000\ngini = 0.5\nsamples = 2", shape="box"] ;
303 -> 304 ;
305 [label="gini = 0.0000\nsamples = 1\nvalue = [ 0.  0.  1.]", shape="box"] ;
304 -> 305 ;
306 [label="gini = 0.0000\nsamples = 1\nvalue = [ 0.  1.  0.]", shape="box"] ;
304 -> 306 ;
307 [label="gini = 0.0000\nsamples = 8\nvalue = [ 0.  0.  8.]", shape="box"] ;
303 -> 307 ;
308 [label="Color <= 5.5000\ngini = 0.484429065744\nsamples = 17", shape="box"] ;
302 -> 308 ;
309 [label="WarrantyCost <= 1243.5000\ngini = 0.497041420118\nsamples = 13", shape="box"] ;
308 -> 309 ;
310 [label="gini = 0.0000\nsamples = 3\nvalue = [ 0.  3.  0.]", shape="box"] ;
309 -> 310 ;
311 [label="MMRCurrentAuctionCleanPrice <= 0.5000\ngini = 0.48\nsamples = 10", shape="box"] ;
309 -> 311 ;
312 [label="gini = 0.0000\nsamples = 3\nvalue = [ 0.  0.  3.]", shape="box"] ;
311 -> 312 ;
313 [label="Model <= 260.0000\ngini = 0.489795918367\nsamples = 7", shape="box"] ;
311 -> 313 ;
314 [label="gini = 0.0000\nsamples = 1\nvalue = [ 0.  0.  1.]", shape="box"] ;
313 -> 314 ;
315 [label="VehOdo <= 71745.0000\ngini = 0.444444444444\nsamples = 6", shape="box"] ;
313 -> 315 ;
316 [label="MMRAcquisitionAuctionAveragePrice <= 2784.5000\ngini = 0.444444444444\nsamples = 3", shape="box"] ;
315 -> 316 ;
317 [label="gini = 0.0000\nsamples = 1\nvalue = [ 0.  1.  0.]", shape="box"] ;
316 -> 317 ;
318 [label="gini = 0.0000\nsamples = 2\nvalue = [ 0.  0.  2.]", shape="box"] ;
316 -> 318 ;
319 [label="gini = 0.0000\nsamples = 3\nvalue = [ 0.  3.  0.]", shape="box"] ;
315 -> 319 ;
320 [label="gini = 0.0000\nsamples = 4\nvalue = [ 0.  0.  4.]", shape="box"] ;
308 -> 320 ;
321 [label="gini = 0.0000\nsamples = 8\nvalue = [ 0.  0.  8.]", shape="box"] ;
299 -> 321 ;
322 [label="gini = 0.0000\nsamples = 1\nvalue = [ 0.  1.  0.]", shape="box"] ;
298 -> 322 ;
323 [label="gini = 0.0000\nsamples = 1\nvalue = [ 1.  0.  0.]", shape="box"] ;
297 -> 323 ;
324 [label="gini = 0.0000\nsamples = 2\nvalue = [ 0.  2.  0.]", shape="box"] ;
276 -> 324 ;
325 [label="Make <= 12.5000\ngini = 0.50049382716\nsamples = 90", shape="box"] ;
275 -> 325 ;
326 [label="SubModel <= 77.5000\ngini = 0.59640831758\nsamples = 46", shape="box"] ;
325 -> 326 ;
327 [label="gini = 0.0000\nsamples = 3\nvalue = [ 0.  3.  0.]", shape="box"] ;
326 -> 327 ;
328 [label="VehOdo <= 82091.0000\ngini = 0.588426176312\nsamples = 43", shape="box"] ;
326 -> 328 ;
329 [label="MMRCurrentAuctionCleanPrice <= 4260.0000\ngini = 0.32\nsamples = 5", shape="box"] ;
328 -> 329 ;
330 [label="gini = 0.0000\nsamples = 4\nvalue = [ 0.  4.  0.]", shape="box"] ;
329 -> 330 ;
331 [label="gini = 0.0000\nsamples = 1\nvalue = [ 0.  0.  1.]", shape="box"] ;
329 -> 331 ;
332 [label="MMRAcquisitionRetailAveragePrice <= 4963.0000\ngini = 0.570637119114\nsamples = 38", shape="box"] ;
328 -> 332 ;
333 [label="MMRAcquisitionAuctionAveragePrice <= 2844.0000\ngini = 0.549382716049\nsamples = 36", shape="box"] ;
332 -> 333 ;
334 [label="MMRAcquisitionRetailAveragePrice <= 3500.5000\ngini = 0.631379962193\nsamples = 23", shape="box"] ;
333 -> 334 ;
335 [label="WarrantyCost <= 1109.0000\ngini = 0.537037037037\nsamples = 18", shape="box"] ;
334 -> 335 ;
336 [label="TopThreeAmericanName <= 1.0000\ngini = 0.444444444444\nsamples = 3", shape="box"] ;
335 -> 336 ;
337 [label="gini = 0.0000\nsamples = 1\nvalue = [ 0.  0.  1.]", shape="box"] ;
336 -> 337 ;
338 [label="gini = 0.0000\nsamples = 2\nvalue = [ 0.  2.  0.]", shape="box"] ;
336 -> 338 ;
339 [label="VehOdo <= 84681.0000\ngini = 0.444444444444\nsamples = 15", shape="box"] ;
335 -> 339 ;
340 [label="gini = 0.0000\nsamples = 2\nvalue = [ 2.  0.  0.]", shape="box"] ;
339 -> 340 ;
341 [label="MMRCurrentRetailAveragePrice <= 4002.0000\ngini = 0.355029585799\nsamples = 13", shape="box"] ;
339 -> 341 ;
342 [label="VehOdo <= 90969.5000\ngini = 0.277777777778\nsamples = 12", shape="box"] ;
341 -> 342 ;
343 [label="gini = 0.0000\nsamples = 7\nvalue = [ 0.  0.  7.]", shape="box"] ;
342 -> 343 ;
344 [label="VehOdo <= 93242.0000\ngini = 0.48\nsamples = 5", shape="box"] ;
342 -> 344 ;
345 [label="gini = 0.0000\nsamples = 2\nvalue = [ 2.  0.  0.]", shape="box"] ;
344 -> 345 ;
346 [label="gini = 0.0000\nsamples = 3\nvalue = [ 0.  0.  3.]", shape="box"] ;
344 -> 346 ;
347 [label="gini = 0.0000\nsamples = 1\nvalue = [ 1.  0.  0.]", shape="box"] ;
341 -> 347 ;
348 [label="gini = 0.0000\nsamples = 5\nvalue = [ 0.  5.  0.]", shape="box"] ;
334 -> 348 ;
349 [label="MMRCurrentAuctionAveragePrice <= 2855.5000\ngini = 0.272189349112\nsamples = 13", shape="box"] ;
333 -> 349 ;
350 [label="gini = 0.0000\nsamples = 1\nvalue = [ 1.  0.  0.]", shape="box"] ;
349 -> 350 ;
351 [label="MMRAcquisitionAuctionAveragePrice <= 3672.5000\ngini = 0.152777777778\nsamples = 12", shape="box"] ;
349 -> 351 ;
352 [label="gini = 0.0000\nsamples = 10\nvalue = [  0.   0.  10.]", shape="box"] ;
351 -> 352 ;
353 [label="MMRAcquisitionAuctionCleanPrice <= 4904.0000\ngini = 0.5\nsamples = 2", shape="box"] ;
351 -> 353 ;
354 [label="gini = 0.0000\nsamples = 1\nvalue = [ 0.  1.  0.]", shape="box"] ;
353 -> 354 ;
355 [label="gini = 0.0000\nsamples = 1\nvalue = [ 0.  0.  1.]", shape="box"] ;
353 -> 355 ;
356 [label="gini = 0.0000\nsamples = 2\nvalue = [ 0.  2.  0.]", shape="box"] ;
332 -> 356 ;
357 [label="MMRAcquisitionRetailAveragePrice <= 4473.0000\ngini = 0.313016528926\nsamples = 44", shape="box"] ;
325 -> 357 ;
358 [label="Model <= 36.5000\ngini = 0.218917311124\nsamples = 41", shape="box"] ;
357 -> 358 ;
359 [label="gini = 0.0000\nsamples = 2\nvalue = [ 0.  2.  0.]", shape="box"] ;
358 -> 359 ;
360 [label="WarrantyCost <= 736.5000\ngini = 0.144641683103\nsamples = 39", shape="box"] ;
358 -> 360 ;
361 [label="gini = 0.0000\nsamples = 1\nvalue = [ 1.  0.  0.]", shape="box"] ;
360 -> 361 ;
362 [label="SubModel <= 29.0000\ngini = 0.0997229916898\nsamples = 38", shape="box"] ;
360 -> 362 ;
363 [label="gini = 0.0000\nsamples = 1\nvalue = [ 0.  1.  0.]", shape="box"] ;
362 -> 363 ;
364 [label="TopThreeAmericanName <= 2.5000\ngini = 0.0525931336742\nsamples = 37", shape="box"] ;
362 -> 364 ;
365 [label="gini = 0.0000\nsamples = 33\nvalue = [  0.   0.  33.]", shape="box"] ;
364 -> 365 ;
366 [label="SubModel <= 516.5000\ngini = 0.375\nsamples = 4", shape="box"] ;
364 -> 366 ;
367 [label="gini = 0.0000\nsamples = 3\nvalue = [ 0.  0.  3.]", shape="box"] ;
366 -> 367 ;
368 [label="gini = 0.0000\nsamples = 1\nvalue = [ 0.  1.  0.]", shape="box"] ;
366 -> 368 ;
369 [label="Trim <= 98.0000\ngini = 0.444444444444\nsamples = 3", shape="box"] ;
357 -> 369 ;
370 [label="gini = 0.0000\nsamples = 1\nvalue = [ 0.  1.  0.]", shape="box"] ;
369 -> 370 ;
371 [label="gini = 0.0000\nsamples = 2\nvalue = [ 2.  0.  0.]", shape="box"] ;
369 -> 371 ;
372 [label="gini = 0.0000\nsamples = 2\nvalue = [ 0.  2.  0.]", shape="box"] ;
274 -> 372 ;
373 [label="MMRCurrentAuctionCleanPrice <= 2814.0000\ngini = 0.269104049314\nsamples = 97", shape="box"] ;
223 -> 373 ;
374 [label="SubModel <= 197.5000\ngini = 0.551111111111\nsamples = 15", shape="box"] ;
373 -> 374 ;
375 [label="Color <= 3.0000\ngini = 0.486111111111\nsamples = 12", shape="box"] ;
374 -> 375 ;
376 [label="gini = 0.0000\nsamples = 5\nvalue = [ 0.  0.  5.]", shape="box"] ;
375 -> 376 ;
377 [label="VehOdo <= 76000.5000\ngini = 0.612244897959\nsamples = 7", shape="box"] ;
375 -> 377 ;
378 [label="gini = 0.0000\nsamples = 2\nvalue = [ 0.  0.  2.]", shape="box"] ;
377 -> 378 ;
379 [label="WheelTypeID <= 1.5000\ngini = 0.56\nsamples = 5", shape="box"] ;
377 -> 379 ;
380 [label="gini = 0.0000\nsamples = 1\nvalue = [ 1.  0.  0.]", shape="box"] ;
379 -> 380 ;
381 [label="SubModel <= 115.5000\ngini = 0.375\nsamples = 4", shape="box"] ;
379 -> 381 ;
382 [label="gini = 0.0000\nsamples = 2\nvalue = [ 0.  2.  0.]", shape="box"] ;
381 -> 382 ;
383 [label="WarrantyCost <= 951.5000\ngini = 0.5\nsamples = 2", shape="box"] ;
381 -> 383 ;
384 [label="gini = 0.0000\nsamples = 1\nvalue = [ 0.  1.  0.]", shape="box"] ;
383 -> 384 ;
385 [label="gini = 0.0000\nsamples = 1\nvalue = [ 0.  0.  1.]", shape="box"] ;
383 -> 385 ;
386 [label="gini = 0.0000\nsamples = 3\nvalue = [ 0.  3.  0.]", shape="box"] ;
374 -> 386 ;
387 [label="MMRCurrentRetailAveragePrice <= 4296.5000\ngini = 0.179654967281\nsamples = 82", shape="box"] ;
373 -> 387 ;
388 [label="VehOdo <= 69715.0000\ngini = 0.160951074531\nsamples = 81", shape="box"] ;
387 -> 388 ;
389 [label="Model <= 783.0000\ngini = 0.0454299621417\nsamples = 43", shape="box"] ;
388 -> 389 ;
390 [label="MMRAcquisitionRetailAveragePrice <= 4015.5000\ngini = 0.444444444444\nsamples = 3", shape="box"] ;
389 -> 390 ;
391 [label="gini = 0.0000\nsamples = 1\nvalue = [ 0.  1.  0.]", shape="box"] ;
390 -> 391 ;
392 [label="gini = 0.0000\nsamples = 2\nvalue = [ 0.  0.  2.]", shape="box"] ;
390 -> 392 ;
393 [label="gini = 0.0000\nsamples = 40\nvalue = [  0.   0.  40.]", shape="box"] ;
389 -> 393 ;
394 [label="Size <= 7.5000\ngini = 0.277008310249\nsamples = 38", shape="box"] ;
388 -> 394 ;
395 [label="VehOdo <= 70867.5000\ngini = 0.239590942294\nsamples = 37", shape="box"] ;
394 -> 395 ;
396 [label="gini = 0.0000\nsamples = 1\nvalue = [ 0.  1.  0.]", shape="box"] ;
395 -> 396 ;
397 [label="MMRCurrentAuctionAveragePrice <= 3000.0000\ngini = 0.202160493827\nsamples = 36", shape="box"] ;
395 -> 397 ;
398 [label="VehYear <= 2004.5000\ngini = 0.3984375\nsamples = 16", shape="box"] ;
397 -> 398 ;
399 [label="MMRCurrentRetailAveragePrice <= 3726.5000\ngini = 0.337777777778\nsamples = 15", shape="box"] ;
398 -> 399 ;
400 [label="Size <= 5.5000\ngini = 0.255102040816\nsamples = 14", shape="box"] ;
399 -> 400 ;
401 [label="gini = 0.0000\nsamples = 8\nvalue = [ 0.  0.  8.]", shape="box"] ;
400 -> 401 ;
402 [label="MMRAcquisitionAuctionCleanPrice <= 3517.0000\ngini = 0.5\nsamples = 6", shape="box"] ;
400 -> 402 ;
403 [label="gini = 0.0000\nsamples = 1\nvalue = [ 1.  0.  0.]", shape="box"] ;
402 -> 403 ;
404 [label="VehOdo <= 77760.0000\ngini = 0.32\nsamples = 5", shape="box"] ;
402 -> 404 ;
405 [label="gini = 0.0000\nsamples = 3\nvalue = [ 0.  0.  3.]", shape="box"] ;
404 -> 405 ;
406 [label="MMRCurrentRetailAveragePrice <= 3534.5000\ngini = 0.5\nsamples = 2", shape="box"] ;
404 -> 406 ;
407 [label="gini = 0.0000\nsamples = 1\nvalue = [ 0.  1.  0.]", shape="box"] ;
406 -> 407 ;
408 [label="gini = 0.0000\nsamples = 1\nvalue = [ 0.  0.  1.]", shape="box"] ;
406 -> 408 ;
409 [label="gini = 0.0000\nsamples = 1\nvalue = [ 0.  1.  0.]", shape="box"] ;
399 -> 409 ;
410 [label="gini = 0.0000\nsamples = 1\nvalue = [ 0.  1.  0.]", shape="box"] ;
398 -> 410 ;
411 [label="gini = 0.0000\nsamples = 20\nvalue = [  0.   0.  20.]", shape="box"] ;
397 -> 411 ;
412 [label="gini = 0.0000\nsamples = 1\nvalue = [ 1.  0.  0.]", shape="box"] ;
394 -> 412 ;
413 [label="gini = 0.0000\nsamples = 1\nvalue = [ 0.  1.  0.]", shape="box"] ;
387 -> 413 ;
414 [label="SubModel <= 101.0000\ngini = 0.506725624257\nsamples = 232", shape="box"] ;
222 -> 414 ;
415 [label="VehOdo <= 87082.5000\ngini = 0.625\nsamples = 20", shape="box"] ;
414 -> 415 ;
416 [label="VehYear <= 2006.0000\ngini = 0.666666666667\nsamples = 15", shape="box"] ;
415 -> 416 ;
417 [label="SubModel <= 61.0000\ngini = 0.625\nsamples = 12", shape="box"] ;
416 -> 417 ;
418 [label="gini = 0.0000\nsamples = 3\nvalue = [ 0.  0.  3.]", shape="box"] ;
417 -> 418 ;
419 [label="Trim <= 25.5000\ngini = 0.592592592593\nsamples = 9", shape="box"] ;
417 -> 419 ;
420 [label="MMRCurrentRetailAveragePrice <= 4114.5000\ngini = 0.444444444444\nsamples = 3", shape="box"] ;
419 -> 420 ;
421 [label="gini = 0.0000\nsamples = 2\nvalue = [ 0.  0.  2.]", shape="box"] ;
420 -> 421 ;
422 [label="gini = 0.0000\nsamples = 1\nvalue = [ 1.  0.  0.]", shape="box"] ;
420 -> 422 ;
423 [label="WarrantyCost <= 765.5000\ngini = 0.277777777778\nsamples = 6", shape="box"] ;
419 -> 423 ;
424 [label="gini = 0.0000\nsamples = 1\nvalue = [ 1.  0.  0.]", shape="box"] ;
423 -> 424 ;
425 [label="gini = 0.0000\nsamples = 5\nvalue = [ 0.  5.  0.]", shape="box"] ;
423 -> 425 ;
426 [label="gini = 0.0000\nsamples = 3\nvalue = [ 3.  0.  0.]", shape="box"] ;
416 -> 426 ;
427 [label="gini = 0.0000\nsamples = 5\nvalue = [ 0.  5.  0.]", shape="box"] ;
415 -> 427 ;
428 [label="WarrantyCost <= 1369.5000\ngini = 0.473789604842\nsamples = 212", shape="box"] ;
414 -> 428 ;
429 [label="MMRAcquisitionRetailAveragePrice <= 3310.0000\ngini = 0.406165534371\nsamples = 117", shape="box"] ;
428 -> 429 ;
430 [label="MMRCurrentAuctionCleanPrice <= 3769.0000\ngini = 0.501033057851\nsamples = 44", shape="box"] ;
429 -> 430 ;
431 [label="VehOdo <= 55739.5000\ngini = 0.47125\nsamples = 40", shape="box"] ;
430 -> 431 ;
432 [label="WarrantyCost <= 647.0000\ngini = 0.46875\nsamples = 16", shape="box"] ;
431 -> 432 ;
433 [label="gini = 0.0000\nsamples = 3\nvalue = [ 0.  0.  3.]", shape="box"] ;
432 -> 433 ;
434 [label="VehOdo <= 38554.0000\ngini = 0.355029585799\nsamples = 13", shape="box"] ;
432 -> 434 ;
435 [label="Trim <= 68.0000\ngini = 0.375\nsamples = 4", shape="box"] ;
434 -> 435 ;
436 [label="gini = 0.0000\nsamples = 1\nvalue = [ 0.  1.  0.]", shape="box"] ;
435 -> 436 ;
437 [label="gini = 0.0000\nsamples = 3\nvalue = [ 0.  0.  3.]", shape="box"] ;
435 -> 437 ;
438 [label="gini = 0.0000\nsamples = 9\nvalue = [ 0.  9.  0.]", shape="box"] ;
434 -> 438 ;
439 [label="MMRCurrentAuctionAveragePrice <= 2436.0000\ngini = 0.288194444444\nsamples = 24", shape="box"] ;
431 -> 439 ;
440 [label="MMRAcquisitonRetailCleanPrice <= 2915.5000\ngini = 0.104938271605\nsamples = 18", shape="box"] ;
439 -> 440 ;
441 [label="MMRAcquisitionAuctionAveragePrice <= 721.5000\ngini = 0.375\nsamples = 4", shape="box"] ;
440 -> 441 ;
442 [label="gini = 0.0000\nsamples = 3\nvalue = [ 0.  0.  3.]", shape="box"] ;
441 -> 442 ;
443 [label="gini = 0.0000\nsamples = 1\nvalue = [ 0.  1.  0.]", shape="box"] ;
441 -> 443 ;
444 [label="gini = 0.0000\nsamples = 14\nvalue = [  0.   0.  14.]", shape="box"] ;
440 -> 444 ;
445 [label="SubModel <= 449.5000\ngini = 0.611111111111\nsamples = 6", shape="box"] ;
439 -> 445 ;
446 [label="gini = 0.0000\nsamples = 3\nvalue = [ 0.  0.  3.]", shape="box"] ;
445 -> 446 ;
447 [label="MMRAcquisitionAuctionCleanPrice <= 3288.5000\ngini = 0.444444444444\nsamples = 3", shape="box"] ;
445 -> 447 ;
448 [label="gini = 0.0000\nsamples = 2\nvalue = [ 0.  2.  0.]", shape="box"] ;
447 -> 448 ;
449 [label="gini = 0.0000\nsamples = 1\nvalue = [ 1.  0.  0.]", shape="box"] ;
447 -> 449 ;
450 [label="gini = 0.0000\nsamples = 4\nvalue = [ 0.  4.  0.]", shape="box"] ;
430 -> 450 ;
451 [label="Nationality <= 0.5000\ngini = 0.314880840683\nsamples = 73", shape="box"] ;
429 -> 451 ;
452 [label="gini = 0.0000\nsamples = 1\nvalue = [ 1.  0.  0.]", shape="box"] ;
451 -> 452 ;
453 [label="MMRCurrentAuctionCleanPrice <= 3878.0000\ngini = 0.295910493827\nsamples = 72", shape="box"] ;
451 -> 453 ;
454 [label="Model <= 40.5000\ngini = 0.120707596254\nsamples = 31", shape="box"] ;
453 -> 454 ;
455 [label="gini = 0.0000\nsamples = 1\nvalue = [ 0.  1.  0.]", shape="box"] ;
454 -> 455 ;
456 [label="MMRCurrentRetailAveragePrice <= 3295.0000\ngini = 0.0644444444444\nsamples = 30", shape="box"] ;
454 -> 456 ;
457 [label="TopThreeAmericanName <= 2.5000\ngini = 0.375\nsamples = 4", shape="box"] ;
456 -> 457 ;
458 [label="gini = 0.0000\nsamples = 3\nvalue = [ 0.  0.  3.]", shape="box"] ;
457 -> 458 ;
459 [label="gini = 0.0000\nsamples = 1\nvalue = [ 0.  1.  0.]", shape="box"] ;
457 -> 459 ;
460 [label="gini = 0.0000\nsamples = 26\nvalue = [  0.   0.  26.]", shape="box"] ;
456 -> 460 ;
461 [label="Trim <= 44.0000\ngini = 0.39262343843\nsamples = 41", shape="box"] ;
453 -> 461 ;
462 [label="gini = 0.0000\nsamples = 12\nvalue = [  0.   0.  12.]", shape="box"] ;
461 -> 462 ;
463 [label="MMRCurrentAuctionAveragePrice <= 3254.5000\ngini = 0.470868014269\nsamples = 29", shape="box"] ;
461 -> 463 ;
464 [label="MMRCurrentRetailAveragePrice <= 3827.5000\ngini = 0.498269896194\nsamples = 17", shape="box"] ;
463 -> 464 ;
465 [label="VehOdo <= 81394.0000\ngini = 0.444444444444\nsamples = 12", shape="box"] ;
464 -> 465 ;
466 [label="MMRAcquisitionAuctionAveragePrice <= 3332.0000\ngini = 0.32\nsamples = 10", shape="box"] ;
465 -> 466 ;
467 [label="TopThreeAmericanName <= 2.5000\ngini = 0.197530864198\nsamples = 9", shape="box"] ;
466 -> 467 ;
468 [label="gini = 0.0000\nsamples = 7\nvalue = [ 0.  0.  7.]", shape="box"] ;
467 -> 468 ;
469 [label="MMRAcquisitionAuctionAveragePrice <= 2787.0000\ngini = 0.5\nsamples = 2", shape="box"] ;
467 -> 469 ;
470 [label="gini = 0.0000\nsamples = 1\nvalue = [ 0.  0.  1.]", shape="box"] ;
469 -> 470 ;
471 [label="gini = 0.0000\nsamples = 1\nvalue = [ 0.  1.  0.]", shape="box"] ;
469 -> 471 ;
472 [label="gini = 0.0000\nsamples = 1\nvalue = [ 0.  1.  0.]", shape="box"] ;
466 -> 472 ;
473 [label="gini = 0.0000\nsamples = 2\nvalue = [ 0.  2.  0.]", shape="box"] ;
465 -> 473 ;
474 [label="gini = 0.0000\nsamples = 5\nvalue = [ 0.  5.  0.]", shape="box"] ;
464 -> 474 ;
475 [label="MMRAcquisitonRetailCleanPrice <= 5344.0000\ngini = 0.277777777778\nsamples = 12", shape="box"] ;
463 -> 475 ;
476 [label="gini = 0.0000\nsamples = 7\nvalue = [ 0.  0.  7.]", shape="box"] ;
475 -> 476 ;
477 [label="Model <= 554.0000\ngini = 0.48\nsamples = 5", shape="box"] ;
475 -> 477 ;
478 [label="gini = 0.0000\nsamples = 2\nvalue = [ 0.  0.  2.]", shape="box"] ;
477 -> 478 ;
479 [label="MMRCurrentAuctionCleanPrice <= 4538.5000\ngini = 0.444444444444\nsamples = 3", shape="box"] ;
477 -> 479 ;
480 [label="gini = 0.0000\nsamples = 2\nvalue = [ 0.  2.  0.]", shape="box"] ;
479 -> 480 ;
481 [label="gini = 0.0000\nsamples = 1\nvalue = [ 0.  0.  1.]", shape="box"] ;
479 -> 481 ;
482 [label="MMRAcquisitionRetailAveragePrice <= 4038.5000\ngini = 0.538725761773\nsamples = 95", shape="box"] ;
428 -> 482 ;
483 [label="MMRCurrentRetailCleanPrice <= 4531.0000\ngini = 0.486495844875\nsamples = 76", shape="box"] ;
482 -> 483 ;
484 [label="MMRCurrentAuctionCleanPrice <= 3460.5000\ngini = 0.551111111111\nsamples = 45", shape="box"] ;
483 -> 484 ;
485 [label="Color <= 12.5000\ngini = 0.515918367347\nsamples = 35", shape="box"] ;
484 -> 485 ;
486 [label="MMRAcquisitionRetailAveragePrice <= 3299.5000\ngini = 0.417009602195\nsamples = 27", shape="box"] ;
485 -> 486 ;
487 [label="MMRCurrentAuctionCleanPrice <= 0.5000\ngini = 0.3648\nsamples = 25", shape="box"] ;
486 -> 487 ;
488 [label="VehYear <= 2005.5000\ngini = 0.48\nsamples = 5", shape="box"] ;
487 -> 488 ;
489 [label="gini = 0.0000\nsamples = 3\nvalue = [ 0.  3.  0.]", shape="box"] ;
488 -> 489 ;
490 [label="gini = 0.0000\nsamples = 2\nvalue = [ 0.  0.  2.]", shape="box"] ;
488 -> 490 ;
491 [label="SubModel <= 266.5000\ngini = 0.255\nsamples = 20", shape="box"] ;
487 -> 491 ;
492 [label="VehYear <= 2001.5000\ngini = 0.5\nsamples = 2", shape="box"] ;
491 -> 492 ;
493 [label="gini = 0.0000\nsamples = 1\nvalue = [ 0.  1.  0.]", shape="box"] ;
492 -> 493 ;
494 [label="gini = 0.0000\nsamples = 1\nvalue = [ 0.  0.  1.]", shape="box"] ;
492 -> 494 ;
495 [label="SubModel <= 592.0000\ngini = 0.197530864198\nsamples = 18", shape="box"] ;
491 -> 495 ;
496 [label="gini = 0.0000\nsamples = 10\nvalue = [  0.   0.  10.]", shape="box"] ;
495 -> 496 ;
497 [label="WarrantyCost <= 1868.0000\ngini = 0.375\nsamples = 8", shape="box"] ;
495 -> 497 ;
498 [label="Color <= 9.0000\ngini = 0.5\nsamples = 4", shape="box"] ;
497 -> 498 ;
499 [label="gini = 0.0000\nsamples = 2\nvalue = [ 0.  2.  0.]", shape="box"] ;
498 -> 499 ;
500 [label="gini = 0.0000\nsamples = 2\nvalue = [ 0.  0.  2.]", shape="box"] ;
498 -> 500 ;
501 [label="gini = 0.0000\nsamples = 4\nvalue = [ 0.  0.  4.]", shape="box"] ;
497 -> 501 ;
502 [label="gini = 0.0000\nsamples = 2\nvalue = [ 0.  2.  0.]", shape="box"] ;
486 -> 502 ;
503 [label="WarrantyCost <= 1514.0000\ngini = 0.65625\nsamples = 8", shape="box"] ;
485 -> 503 ;
504 [label="gini = 0.0000\nsamples = 3\nvalue = [ 3.  0.  0.]", shape="box"] ;
503 -> 504 ;
505 [label="VehOdo <= 89382.5000\ngini = 0.48\nsamples = 5", shape="box"] ;
503 -> 505 ;
506 [label="gini = 0.0000\nsamples = 3\nvalue = [ 0.  0.  3.]", shape="box"] ;
505 -> 506 ;
507 [label="gini = 0.0000\nsamples = 2\nvalue = [ 0.  2.  0.]", shape="box"] ;
505 -> 507 ;
508 [label="MMRCurrentAuctionAveragePrice <= 2810.0000\ngini = 0.32\nsamples = 10", shape="box"] ;
484 -> 508 ;
509 [label="gini = 0.0000\nsamples = 7\nvalue = [ 0.  7.  0.]", shape="box"] ;
508 -> 509 ;
510 [label="WarrantyCost <= 1479.0000\ngini = 0.444444444444\nsamples = 3", shape="box"] ;
508 -> 510 ;
511 [label="gini = 0.0000\nsamples = 1\nvalue = [ 0.  1.  0.]", shape="box"] ;
510 -> 511 ;
512 [label="gini = 0.0000\nsamples = 2\nvalue = [ 0.  0.  2.]", shape="box"] ;
510 -> 512 ;
513 [label="Size <= 8.0000\ngini = 0.283038501561\nsamples = 31", shape="box"] ;
483 -> 513 ;
514 [label="Transmission <= 1.5000\ngini = 0.237777777778\nsamples = 30", shape="box"] ;
513 -> 514 ;
515 [label="gini = 0.0000\nsamples = 1\nvalue = [ 0.  1.  0.]", shape="box"] ;
514 -> 515 ;
516 [label="WarrantyCost <= 3786.5000\ngini = 0.190249702735\nsamples = 29", shape="box"] ;
514 -> 516 ;
517 [label="MMRAcquisitionAuctionAveragePrice <= 3141.5000\ngini = 0.137174211248\nsamples = 27", shape="box"] ;
516 -> 517 ;
518 [label="gini = 0.0000\nsamples = 19\nvalue = [  0.   0.  19.]", shape="box"] ;
517 -> 518 ;
519 [label="MMRAcquisitonRetailCleanPrice <= 4997.5000\ngini = 0.375\nsamples = 8", shape="box"] ;
517 -> 519 ;
520 [label="MMRCurrentAuctionAveragePrice <= 3022.0000\ngini = 0.444444444444\nsamples = 3", shape="box"] ;
519 -> 520 ;
521 [label="gini = 0.0000\nsamples = 1\nvalue = [ 0.  0.  1.]", shape="box"] ;
520 -> 521 ;
522 [label="gini = 0.0000\nsamples = 2\nvalue = [ 0.  2.  0.]", shape="box"] ;
520 -> 522 ;
523 [label="gini = 0.0000\nsamples = 5\nvalue = [ 0.  0.  5.]", shape="box"] ;
519 -> 523 ;
524 [label="MMRAcquisitionAuctionAveragePrice <= 2927.5000\ngini = 0.5\nsamples = 2", shape="box"] ;
516 -> 524 ;
525 [label="gini = 0.0000\nsamples = 1\nvalue = [ 1.  0.  0.]", shape="box"] ;
524 -> 525 ;
526 [label="gini = 0.0000\nsamples = 1\nvalue = [ 0.  0.  1.]", shape="box"] ;
524 -> 526 ;
527 [label="gini = 0.0000\nsamples = 1\nvalue = [ 1.  0.  0.]", shape="box"] ;
513 -> 527 ;
528 [label="MMRCurrentAuctionCleanPrice <= 4566.0000\ngini = 0.520775623269\nsamples = 19", shape="box"] ;
482 -> 528 ;
529 [label="MMRAcquisitonRetailCleanPrice <= 5262.0000\ngini = 0.40625\nsamples = 16", shape="box"] ;
528 -> 529 ;
530 [label="MMRCurrentRetailCleanPrice <= 4785.0000\ngini = 0.625\nsamples = 4", shape="box"] ;
529 -> 530 ;
531 [label="gini = 0.0000\nsamples = 2\nvalue = [ 2.  0.  0.]", shape="box"] ;
530 -> 531 ;
532 [label="VehOdo <= 92019.0000\ngini = 0.5\nsamples = 2", shape="box"] ;
530 -> 532 ;
533 [label="gini = 0.0000\nsamples = 1\nvalue = [ 0.  1.  0.]", shape="box"] ;
532 -> 533 ;
534 [label="gini = 0.0000\nsamples = 1\nvalue = [ 0.  0.  1.]", shape="box"] ;
532 -> 534 ;
535 [label="Color <= 12.5000\ngini = 0.152777777778\nsamples = 12", shape="box"] ;
529 -> 535 ;
536 [label="gini = 0.0000\nsamples = 10\nvalue = [  0.  10.   0.]", shape="box"] ;
535 -> 536 ;
537 [label="Make <= 24.0000\ngini = 0.5\nsamples = 2", shape="box"] ;
535 -> 537 ;
538 [label="gini = 0.0000\nsamples = 1\nvalue = [ 0.  1.  0.]", shape="box"] ;
537 -> 538 ;
539 [label="gini = 0.0000\nsamples = 1\nvalue = [ 0.  0.  1.]", shape="box"] ;
537 -> 539 ;
540 [label="gini = 0.0000\nsamples = 3\nvalue = [ 0.  0.  3.]", shape="box"] ;
528 -> 540 ;
541 [label="Trim <= 33.0000\ngini = 0.512345679012\nsamples = 18", shape="box"] ;
221 -> 541 ;
542 [label="WarrantyCost <= 2154.5000\ngini = 0.18\nsamples = 10", shape="box"] ;
541 -> 542 ;
543 [label="gini = 0.0000\nsamples = 8\nvalue = [ 0.  8.  0.]", shape="box"] ;
542 -> 543 ;
544 [label="MMRAcquisitionAuctionAveragePrice <= 3045.0000\ngini = 0.5\nsamples = 2", shape="box"] ;
542 -> 544 ;
545 [label="gini = 0.0000\nsamples = 1\nvalue = [ 0.  0.  1.]", shape="box"] ;
544 -> 545 ;
546 [label="gini = 0.0000\nsamples = 1\nvalue = [ 0.  1.  0.]", shape="box"] ;
544 -> 546 ;
547 [label="VehOdo <= 87299.5000\ngini = 0.53125\nsamples = 8", shape="box"] ;
541 -> 547 ;
548 [label="VehOdo <= 66910.0000\ngini = 0.277777777778\nsamples = 6", shape="box"] ;
547 -> 548 ;
549 [label="gini = 0.0000\nsamples = 1\nvalue = [ 1.  0.  0.]", shape="box"] ;
548 -> 549 ;
550 [label="gini = 0.0000\nsamples = 5\nvalue = [ 0.  0.  5.]", shape="box"] ;
548 -> 550 ;
551 [label="gini = 0.0000\nsamples = 2\nvalue = [ 0.  2.  0.]", shape="box"] ;
547 -> 551 ;
552 [label="MMRAcquisitionAuctionAveragePrice <= 2149.5000\ngini = 0.588696489361\nsamples = 807", shape="box"] ;
220 -> 552 ;
553 [label="Model <= 824.0000\ngini = 0.566328100954\nsamples = 57", shape="box"] ;
552 -> 553 ;
554 [label="Make <= 29.5000\ngini = 0.46375\nsamples = 40", shape="box"] ;
553 -> 554 ;
555 [label="Trim <= 116.0000\ngini = 0.42243767313\nsamples = 38", shape="box"] ;
554 -> 555 ;
556 [label="SubModel <= 728.5000\ngini = 0.291111111111\nsamples = 30", shape="box"] ;
555 -> 556 ;
557 [label="MMRCurrentRetailCleanPrice <= 5016.5000\ngini = 0.244946492271\nsamples = 29", shape="box"] ;
556 -> 557 ;
558 [label="gini = 0.0000\nsamples = 1\nvalue = [ 0.  0.  1.]", shape="box"] ;
557 -> 558 ;
559 [label="MMRAcquisitionAuctionCleanPrice <= 3167.0000\ngini = 0.196428571429\nsamples = 28", shape="box"] ;
557 -> 559 ;
560 [label="Trim <= 19.5000\ngini = 0.139917695473\nsamples = 27", shape="box"] ;
559 -> 560 ;
561 [label="MMRCurrentRetailCleanPrice <= 5364.5000\ngini = 0.5\nsamples = 6", shape="box"] ;
560 -> 561 ;
562 [label="gini = 0.0000\nsamples = 1\nvalue = [ 0.  0.  1.]", shape="box"] ;
561 -> 562 ;
563 [label="MMRAcquisitionAuctionCleanPrice <= 2653.5000\ngini = 0.32\nsamples = 5", shape="box"] ;
561 -> 563 ;
564 [label="gini = 0.0000\nsamples = 3\nvalue = [ 0.  3.  0.]", shape="box"] ;
563 -> 564 ;
565 [label="WarrantyCost <= 1319.0000\ngini = 0.5\nsamples = 2", shape="box"] ;
563 -> 565 ;
566 [label="gini = 0.0000\nsamples = 1\nvalue = [ 1.  0.  0.]", shape="box"] ;
565 -> 566 ;
567 [label="gini = 0.0000\nsamples = 1\nvalue = [ 0.  1.  0.]", shape="box"] ;
565 -> 567 ;
568 [label="gini = 0.0000\nsamples = 21\nvalue = [  0.  21.   0.]", shape="box"] ;
560 -> 568 ;
569 [label="gini = 0.0000\nsamples = 1\nvalue = [ 0.  0.  1.]", shape="box"] ;
559 -> 569 ;
570 [label="gini = 0.0000\nsamples = 1\nvalue = [ 1.  0.  0.]", shape="box"] ;
556 -> 570 ;
571 [label="MMRCurrentRetailAveragePrice <= 4859.0000\ngini = 0.65625\nsamples = 8", shape="box"] ;
555 -> 571 ;
572 [label="gini = 0.0000\nsamples = 3\nvalue = [ 0.  3.  0.]", shape="box"] ;
571 -> 572 ;
573 [label="VehOdo <= 81190.5000\ngini = 0.48\nsamples = 5", shape="box"] ;
571 -> 573 ;
574 [label="gini = 0.0000\nsamples = 2\nvalue = [ 0.  0.  2.]", shape="box"] ;
573 -> 574 ;
575 [label="gini = 0.0000\nsamples = 3\nvalue = [ 3.  0.  0.]", shape="box"] ;
573 -> 575 ;
576 [label="gini = 0.0000\nsamples = 2\nvalue = [ 2.  0.  0.]", shape="box"] ;
554 -> 576 ;
577 [label="Color <= 1.5000\ngini = 0.491349480969\nsamples = 17", shape="box"] ;
553 -> 577 ;
578 [label="gini = 0.0000\nsamples = 3\nvalue = [ 0.  3.  0.]", shape="box"] ;
577 -> 578 ;
579 [label="MMRAcquisitionAuctionAveragePrice <= 2047.0000\ngini = 0.357142857143\nsamples = 14", shape="box"] ;
577 -> 579 ;
580 [label="WarrantyCost <= 3088.0000\ngini = 0.152777777778\nsamples = 12", shape="box"] ;
579 -> 580 ;
581 [label="gini = 0.0000\nsamples = 11\nvalue = [  0.   0.  11.]", shape="box"] ;
580 -> 581 ;
582 [label="gini = 0.0000\nsamples = 1\nvalue = [ 0.  1.  0.]", shape="box"] ;
580 -> 582 ;
583 [label="SubModel <= 545.0000\ngini = 0.5\nsamples = 2", shape="box"] ;
579 -> 583 ;
584 [label="gini = 0.0000\nsamples = 1\nvalue = [ 0.  1.  0.]", shape="box"] ;
583 -> 584 ;
585 [label="gini = 0.0000\nsamples = 1\nvalue = [ 1.  0.  0.]", shape="box"] ;
583 -> 585 ;
586 [label="SubModel <= 773.0000\ngini = 0.583569777778\nsamples = 750", shape="box"] ;
552 -> 586 ;
587 [label="Make <= 26.0000\ngini = 0.581567802827\nsamples = 715", shape="box"] ;
586 -> 587 ;
588 [label="MMRAcquisitonRetailCleanPrice <= 7787.5000\ngini = 0.58800512747\nsamples = 668", shape="box"] ;
587 -> 588 ;
589 [label="VehOdo <= 59578.0000\ngini = 0.597616326531\nsamples = 525", shape="box"] ;
588 -> 589 ;
590 [label="SubModel <= 609.5000\ngini = 0.576885813149\nsamples = 85", shape="box"] ;
589 -> 590 ;
591 [label="MMRAcquisitonRetailCleanPrice <= 7644.0000\ngini = 0.563773833005\nsamples = 78", shape="box"] ;
590 -> 591 ;
592 [label="WarrantyCost <= 1883.0000\ngini = 0.54475308642\nsamples = 72", shape="box"] ;
591 -> 592 ;
593 [label="VehOdo <= 30452.0000\ngini = 0.525099768956\nsamples = 69", shape="box"] ;
592 -> 593 ;
594 [label="MMRCurrentRetailAveragePrice <= 6240.0000\ngini = 0.375\nsamples = 4", shape="box"] ;
593 -> 594 ;
595 [label="gini = 0.0000\nsamples = 3\nvalue = [ 0.  0.  3.]", shape="box"] ;
594 -> 595 ;
596 [label="gini = 0.0000\nsamples = 1\nvalue = [ 0.  1.  0.]", shape="box"] ;
594 -> 596 ;
597 [label="MMRCurrentRetailAveragePrice <= 6355.0000\ngini = 0.504615384615\nsamples = 65", shape="box"] ;
593 -> 597 ;
598 [label="VehYear <= 2001.5000\ngini = 0.450445274346\nsamples = 59", shape="box"] ;
597 -> 598 ;
599 [label="SubModel <= 594.0000\ngini = 0.48\nsamples = 5", shape="box"] ;
598 -> 599 ;
600 [label="gini = 0.0000\nsamples = 2\nvalue = [ 0.  2.  0.]", shape="box"] ;
599 -> 600 ;
601 [label="gini = 0.0000\nsamples = 3\nvalue = [ 3.  0.  0.]", shape="box"] ;
599 -> 601 ;
602 [label="WarrantyCost <= 1784.5000\ngini = 0.411522633745\nsamples = 54", shape="box"] ;
598 -> 602 ;
603 [label="WarrantyCost <= 956.5000\ngini = 0.375\nsamples = 52", shape="box"] ;
602 -> 603 ;
604 [label="SubModel <= 471.0000\ngini = 0.477720964207\nsamples = 37", shape="box"] ;
603 -> 604 ;
605 [label="Color <= 0.5000\ngini = 0.571428571429\nsamples = 7", shape="box"] ;
604 -> 605 ;
606 [label="MMRAcquisitionRetailAveragePrice <= 4616.0000\ngini = 0.444444444444\nsamples = 3", shape="box"] ;
605 -> 606 ;
607 [label="gini = 0.0000\nsamples = 1\nvalue = [ 1.  0.  0.]", shape="box"] ;
606 -> 607 ;
608 [label="gini = 0.0000\nsamples = 2\nvalue = [ 0.  2.  0.]", shape="box"] ;
606 -> 608 ;
609 [label="gini = 0.0000\nsamples = 4\nvalue = [ 0.  0.  4.]", shape="box"] ;
605 -> 609 ;
610 [label="Model <= 827.0000\ngini = 0.38\nsamples = 30", shape="box"] ;
604 -> 610 ;
611 [label="MMRCurrentAuctionAveragePrice <= 3856.5000\ngini = 0.234404536862\nsamples = 23", shape="box"] ;
610 -> 611 ;
612 [label="VehYear <= 2003.5000\ngini = 0.169421487603\nsamples = 22", shape="box"] ;
611 -> 612 ;
613 [label="MMRCurrentRetailAveragePrice <= 5307.0000\ngini = 0.5\nsamples = 2", shape="box"] ;
612 -> 613 ;
614 [label="gini = 0.0000\nsamples = 1\nvalue = [ 0.  1.  0.]", shape="box"] ;
613 -> 614 ;
615 [label="gini = 0.0000\nsamples = 1\nvalue = [ 1.  0.  0.]", shape="box"] ;
613 -> 615 ;
616 [label="MMRCurrentRetailCleanPrice <= 7210.5000\ngini = 0.095\nsamples = 20", shape="box"] ;
612 -> 616 ;
617 [label="gini = 0.0000\nsamples = 16\nvalue = [  0.  16.   0.]", shape="box"] ;
616 -> 617 ;
618 [label="MMRCurrentAuctionCleanPrice <= 4027.5000\ngini = 0.375\nsamples = 4", shape="box"] ;
616 -> 618 ;
619 [label="gini = 0.0000\nsamples = 1\nvalue = [ 0.  0.  1.]", shape="box"] ;
618 -> 619 ;
620 [label="gini = 0.0000\nsamples = 3\nvalue = [ 0.  3.  0.]", shape="box"] ;
618 -> 620 ;
621 [label="gini = 0.0000\nsamples = 1\nvalue = [ 0.  0.  1.]", shape="box"] ;
611 -> 621 ;
622 [label="MMRAcquisitionAuctionCleanPrice <= 4127.0000\ngini = 0.612244897959\nsamples = 7", shape="box"] ;
610 -> 622 ;
623 [label="VehOdo <= 57041.0000\ngini = 0.56\nsamples = 5", shape="box"] ;
622 -> 623 ;
624 [label="gini = 0.0000\nsamples = 3\nvalue = [ 0.  0.  3.]", shape="box"] ;
623 -> 624 ;
625 [label="Color <= 0.5000\ngini = 0.5\nsamples = 2", shape="box"] ;
623 -> 625 ;
626 [label="gini = 0.0000\nsamples = 1\nvalue = [ 0.  1.  0.]", shape="box"] ;
625 -> 626 ;
627 [label="gini = 0.0000\nsamples = 1\nvalue = [ 1.  0.  0.]", shape="box"] ;
625 -> 627 ;
628 [label="gini = 0.0000\nsamples = 2\nvalue = [ 0.  2.  0.]", shape="box"] ;
622 -> 628 ;
629 [label="gini = 0.0000\nsamples = 15\nvalue = [  0.  15.   0.]", shape="box"] ;
603 -> 629 ;
630 [label="Trim <= 116.0000\ngini = 0.5\nsamples = 2", shape="box"] ;
602 -> 630 ;
631 [label="gini = 0.0000\nsamples = 1\nvalue = [ 1.  0.  0.]", shape="box"] ;
630 -> 631 ;
632 [label="gini = 0.0000\nsamples = 1\nvalue = [ 0.  0.  1.]", shape="box"] ;
630 -> 632 ;
633 [label="Color <= 5.0000\ngini = 0.611111111111\nsamples = 6", shape="box"] ;
597 -> 633 ;
634 [label="Model <= 784.0000\ngini = 0.444444444444\nsamples = 3", shape="box"] ;
633 -> 634 ;
635 [label="gini = 0.0000\nsamples = 2\nvalue = [ 0.  0.  2.]", shape="box"] ;
634 -> 635 ;
636 [label="gini = 0.0000\nsamples = 1\nvalue = [ 0.  1.  0.]", shape="box"] ;
634 -> 636 ;
637 [label="gini = 0.0000\nsamples = 3\nvalue = [ 3.  0.  0.]", shape="box"] ;
633 -> 637 ;
638 [label="gini = 0.0000\nsamples = 3\nvalue = [ 0.  0.  3.]", shape="box"] ;
592 -> 638 ;
639 [label="Color <= 12.0000\ngini = 0.277777777778\nsamples = 6", shape="box"] ;
591 -> 639 ;
640 [label="gini = 0.0000\nsamples = 5\nvalue = [ 0.  0.  5.]", shape="box"] ;
639 -> 640 ;
641 [label="gini = 0.0000\nsamples = 1\nvalue = [ 0.  1.  0.]", shape="box"] ;
639 -> 641 ;
642 [label="MMRCurrentRetailCleanPrice <= 7299.0000\ngini = 0.244897959184\nsamples = 7", shape="box"] ;
590 -> 642 ;
643 [label="gini = 0.0000\nsamples = 6\nvalue = [ 0.  0.  6.]", shape="box"] ;
642 -> 643 ;
644 [label="gini = 0.0000\nsamples = 1\nvalue = [ 0.  1.  0.]", shape="box"] ;
642 -> 644 ;
645 [label="Model <= 931.5000\ngini = 0.59257231405\nsamples = 440", shape="box"] ;
589 -> 645 ;
646 [label="VehOdo <= 105002.5000\ngini = 0.59004164188\nsamples = 410", shape="box"] ;
645 -> 646 ;
647 [label="MMRAcquisitonRetailCleanPrice <= 7749.5000\ngini = 0.587087050289\nsamples = 404", shape="box"] ;
646 -> 647 ;
648 [label="Model <= 582.5000\ngini = 0.5856375\nsamples = 400", shape="box"] ;
647 -> 648 ;
649 [label="MMRAcquisitionRetailAveragePrice <= 4582.0000\ngini = 0.618827160494\nsamples = 216", shape="box"] ;
648 -> 649 ;
650 [label="Color <= 8.5000\ngini = 0.50266998932\nsamples = 53", shape="box"] ;
649 -> 650 ;
651 [label="MMRCurrentRetailAveragePrice <= 5373.5000\ngini = 0.444444444444\nsamples = 42", shape="box"] ;
650 -> 651 ;
652 [label="WarrantyCost <= 697.5000\ngini = 0.0867768595041\nsamples = 22", shape="box"] ;
651 -> 652 ;
653 [label="MMRAcquisitionAuctionCleanPrice <= 4203.5000\ngini = 0.5\nsamples = 2", shape="box"] ;
652 -> 653 ;
654 [label="gini = 0.0000\nsamples = 1\nvalue = [ 1.  0.  0.]", shape="box"] ;
653 -> 654 ;
655 [label="gini = 0.0000\nsamples = 1\nvalue = [ 0.  0.  1.]", shape="box"] ;
653 -> 655 ;
656 [label="gini = 0.0000\nsamples = 20\nvalue = [  0.   0.  20.]", shape="box"] ;
652 -> 656 ;
657 [label="WarrantyCost <= 904.0000\ngini = 0.615\nsamples = 20", shape="box"] ;
651 -> 657 ;
658 [label="gini = 0.0000\nsamples = 2\nvalue = [ 2.  0.  0.]", shape="box"] ;
657 -> 658 ;
659 [label="Make <= 13.0000\ngini = 0.549382716049\nsamples = 18", shape="box"] ;
657 -> 659 ;
660 [label="VehOdo <= 87965.5000\ngini = 0.541666666667\nsamples = 12", shape="box"] ;
659 -> 660 ;
661 [label="MMRCurrentAuctionAveragePrice <= 2359.5000\ngini = 0.345679012346\nsamples = 9", shape="box"] ;
660 -> 661 ;
662 [label="gini = 0.0000\nsamples = 1\nvalue = [ 0.  0.  1.]", shape="box"] ;
661 -> 662 ;
663 [label="VehYear <= 2004.5000\ngini = 0.21875\nsamples = 8", shape="box"] ;
661 -> 663 ;
664 [label="gini = 0.0000\nsamples = 7\nvalue = [ 0.  7.  0.]", shape="box"] ;
663 -> 664 ;
665 [label="gini = 0.0000\nsamples = 1\nvalue = [ 0.  0.  1.]", shape="box"] ;
663 -> 665 ;
666 [label="WheelTypeID <= 1.5000\ngini = 0.444444444444\nsamples = 3", shape="box"] ;
660 -> 666 ;
667 [label="gini = 0.0000\nsamples = 1\nvalue = [ 1.  0.  0.]", shape="box"] ;
666 -> 667 ;
668 [label="gini = 0.0000\nsamples = 2\nvalue = [ 0.  0.  2.]", shape="box"] ;
666 -> 668 ;
669 [label="MMRCurrentRetailAveragePrice <= 5780.0000\ngini = 0.277777777778\nsamples = 6", shape="box"] ;
659 -> 669 ;
670 [label="gini = 0.0000\nsamples = 1\nvalue = [ 0.  1.  0.]", shape="box"] ;
669 -> 670 ;
671 [label="gini = 0.0000\nsamples = 5\nvalue = [ 0.  0.  5.]", shape="box"] ;
669 -> 671 ;
672 [label="MMRCurrentRetailAveragePrice <= 5724.0000\ngini = 0.462809917355\nsamples = 11", shape="box"] ;
650 -> 672 ;
673 [label="gini = 0.0000\nsamples = 6\nvalue = [ 0.  6.  0.]", shape="box"] ;
672 -> 673 ;
674 [label="Make <= 2.5000\ngini = 0.32\nsamples = 5", shape="box"] ;
672 -> 674 ;
675 [label="gini = 0.0000\nsamples = 1\nvalue = [ 0.  1.  0.]", shape="box"] ;
674 -> 675 ;
676 [label="gini = 0.0000\nsamples = 4\nvalue = [ 0.  0.  4.]", shape="box"] ;
674 -> 676 ;
677 [label="MMRAcquisitionRetailAveragePrice <= 5037.5000\ngini = 0.638036809816\nsamples = 163", shape="box"] ;
649 -> 677 ;
678 [label="Model <= 537.0000\ngini = 0.378698224852\nsamples = 13", shape="box"] ;
677 -> 678 ;
679 [label="VehOdo <= 87904.0000\ngini = 0.291666666667\nsamples = 12", shape="box"] ;
678 -> 679 ;
680 [label="WarrantyCost <= 904.0000\ngini = 0.18\nsamples = 10", shape="box"] ;
679 -> 680 ;
681 [label="MMRCurrentRetailCleanPrice <= 5894.5000\ngini = 0.5\nsamples = 2", shape="box"] ;
680 -> 681 ;
682 [label="gini = 0.0000\nsamples = 1\nvalue = [ 0.  0.  1.]", shape="box"] ;
681 -> 682 ;
683 [label="gini = 0.0000\nsamples = 1\nvalue = [ 0.  1.  0.]", shape="box"] ;
681 -> 683 ;
684 [label="gini = 0.0000\nsamples = 8\nvalue = [ 0.  8.  0.]", shape="box"] ;
680 -> 684 ;
685 [label="Color <= 3.0000\ngini = 0.5\nsamples = 2", shape="box"] ;
679 -> 685 ;
686 [label="gini = 0.0000\nsamples = 1\nvalue = [ 1.  0.  0.]", shape="box"] ;
685 -> 686 ;
687 [label="gini = 0.0000\nsamples = 1\nvalue = [ 0.  1.  0.]", shape="box"] ;
685 -> 687 ;
688 [label="gini = 0.0000\nsamples = 1\nvalue = [ 1.  0.  0.]", shape="box"] ;
678 -> 688 ;
689 [label="WheelTypeID <= 1.5000\ngini = 0.635644444444\nsamples = 150", shape="box"] ;
677 -> 689 ;
690 [label="MMRCurrentAuctionCleanPrice <= 4393.0000\ngini = 0.580994897959\nsamples = 56", shape="box"] ;
689 -> 690 ;
691 [label="Model <= 41.5000\ngini = 0.528946272387\nsamples = 49", shape="box"] ;
690 -> 691 ;
692 [label="MMRCurrentAuctionAveragePrice <= 3056.5000\ngini = 0.375\nsamples = 4", shape="box"] ;
691 -> 692 ;
693 [label="gini = 0.0000\nsamples = 3\nvalue = [ 3.  0.  0.]", shape="box"] ;
692 -> 693 ;
694 [label="gini = 0.0000\nsamples = 1\nvalue = [ 0.  1.  0.]", shape="box"] ;
692 -> 694 ;
695 [label="MMRAcquisitonRetailCleanPrice <= 6988.5000\ngini = 0.476049382716\nsamples = 45", shape="box"] ;
691 -> 695 ;
696 [label="MMRAcquisitionAuctionAveragePrice <= 3110.5000\ngini = 0.591715976331\nsamples = 26", shape="box"] ;
695 -> 696 ;
697 [label="MMRAcquisitonRetailCleanPrice <= 6565.5000\ngini = 0.541666666667\nsamples = 24", shape="box"] ;
696 -> 697 ;
698 [label="MMRCurrentAuctionAveragePrice <= 2196.5000\ngini = 0.34\nsamples = 10", shape="box"] ;
697 -> 698 ;
699 [label="Color <= 0.5000\ngini = 0.5\nsamples = 2", shape="box"] ;
698 -> 699 ;
700 [label="gini = 0.0000\nsamples = 1\nvalue = [ 1.  0.  0.]", shape="box"] ;
699 -> 700 ;
701 [label="gini = 0.0000\nsamples = 1\nvalue = [ 0.  1.  0.]", shape="box"] ;
699 -> 701 ;
702 [label="gini = 0.0000\nsamples = 8\nvalue = [ 0.  0.  8.]", shape="box"] ;
698 -> 702 ;
703 [label="VehYear <= 2003.5000\ngini = 0.561224489796\nsamples = 14", shape="box"] ;
697 -> 703 ;
704 [label="gini = 0.0000\nsamples = 3\nvalue = [ 0.  0.  3.]", shape="box"] ;
703 -> 704 ;
705 [label="Color <= 7.0000\ngini = 0.512396694215\nsamples = 11", shape="box"] ;
703 -> 705 ;
706 [label="MMRAcquisitonRetailCleanPrice <= 6899.0000\ngini = 0.244897959184\nsamples = 7", shape="box"] ;
705 -> 706 ;
707 [label="gini = 0.0000\nsamples = 6\nvalue = [ 6.  0.  0.]", shape="box"] ;
706 -> 707 ;
708 [label="gini = 0.0000\nsamples = 1\nvalue = [ 0.  0.  1.]", shape="box"] ;
706 -> 708 ;
709 [label="WarrantyCost <= 1199.0000\ngini = 0.625\nsamples = 4", shape="box"] ;
705 -> 709 ;
710 [label="Trim <= 71.0000\ngini = 0.5\nsamples = 2", shape="box"] ;
709 -> 710 ;
711 [label="gini = 0.0000\nsamples = 1\nvalue = [ 1.  0.  0.]", shape="box"] ;
710 -> 711 ;
712 [label="gini = 0.0000\nsamples = 1\nvalue = [ 0.  1.  0.]", shape="box"] ;
710 -> 712 ;
713 [label="gini = 0.0000\nsamples = 2\nvalue = [ 0.  0.  2.]", shape="box"] ;
709 -> 713 ;
714 [label="gini = 0.0000\nsamples = 2\nvalue = [ 0.  2.  0.]", shape="box"] ;
696 -> 714 ;
715 [label="SubModel <= 608.5000\ngini = 0.18836565097\nsamples = 19", shape="box"] ;
695 -> 715 ;
716 [label="Model <= 503.5000\ngini = 0.104938271605\nsamples = 18", shape="box"] ;
715 -> 716 ;
717 [label="gini = 0.0000\nsamples = 17\nvalue = [  0.   0.  17.]", shape="box"] ;
716 -> 717 ;
718 [label="gini = 0.0000\nsamples = 1\nvalue = [ 0.  1.  0.]", shape="box"] ;
716 -> 718 ;
719 [label="gini = 0.0000\nsamples = 1\nvalue = [ 0.  1.  0.]", shape="box"] ;
715 -> 719 ;
720 [label="MMRAcquisitonRetailCleanPrice <= 7189.5000\ngini = 0.571428571429\nsamples = 7", shape="box"] ;
690 -> 720 ;
721 [label="gini = 0.0000\nsamples = 2\nvalue = [ 2.  0.  0.]", shape="box"] ;
720 -> 721 ;
722 [label="MMRAcquisitionRetailAveragePrice <= 6176.0000\ngini = 0.32\nsamples = 5", shape="box"] ;
720 -> 722 ;
723 [label="gini = 0.0000\nsamples = 1\nvalue = [ 0.  0.  1.]", shape="box"] ;
722 -> 723 ;
724 [label="gini = 0.0000\nsamples = 4\nvalue = [ 0.  4.  0.]", shape="box"] ;
722 -> 724 ;
725 [label="MMRCurrentAuctionAveragePrice <= 3126.5000\ngini = 0.629017655048\nsamples = 94", shape="box"] ;
689 -> 725 ;
726 [label="MMRAcquisitionAuctionAveragePrice <= 2637.5000\ngini = 0.580124869927\nsamples = 62", shape="box"] ;
725 -> 726 ;
727 [label="MMRCurrentAuctionCleanPrice <= 3396.0000\ngini = 0.53305785124\nsamples = 22", shape="box"] ;
726 -> 727 ;
728 [label="MMRAcquisitionRetailAveragePrice <= 5218.5000\ngini = 0.429752066116\nsamples = 11", shape="box"] ;
727 -> 728 ;
729 [label="WarrantyCost <= 1548.0000\ngini = 0.625\nsamples = 4", shape="box"] ;
728 -> 729 ;
730 [label="MMRAcquisitionAuctionAveragePrice <= 2444.5000\ngini = 0.444444444444\nsamples = 3", shape="box"] ;
729 -> 730 ;
731 [label="gini = 0.0000\nsamples = 2\nvalue = [ 0.  0.  2.]", shape="box"] ;
730 -> 731 ;
732 [label="gini = 0.0000\nsamples = 1\nvalue = [ 0.  1.  0.]", shape="box"] ;
730 -> 732 ;
733 [label="gini = 0.0000\nsamples = 1\nvalue = [ 1.  0.  0.]", shape="box"] ;
729 -> 733 ;
734 [label="gini = 0.0000\nsamples = 7\nvalue = [ 0.  7.  0.]", shape="box"] ;
728 -> 734 ;
735 [label="Transmission <= 1.5000\ngini = 0.165289256198\nsamples = 11", shape="box"] ;
727 -> 735 ;
736 [label="gini = 0.0000\nsamples = 1\nvalue = [ 0.  1.  0.]", shape="box"] ;
735 -> 736 ;
737 [label="gini = 0.0000\nsamples = 10\nvalue = [  0.   0.  10.]", shape="box"] ;
735 -> 737 ;
738 [label="SubModel <= 549.5000\ngini = 0.51125\nsamples = 40", shape="box"] ;
726 -> 738 ;
739 [label="MMRAcquisitonRetailCleanPrice <= 6975.5000\ngini = 0.6328125\nsamples = 16", shape="box"] ;
738 -> 739 ;
740 [label="WarrantyCost <= 2465.0000\ngini = 0.40625\nsamples = 8", shape="box"] ;
739 -> 740 ;
741 [label="MMRCurrentAuctionCleanPrice <= 3910.5000\ngini = 0.244897959184\nsamples = 7", shape="box"] ;
740 -> 741 ;
742 [label="gini = 0.0000\nsamples = 5\nvalue = [ 0.  5.  0.]", shape="box"] ;
741 -> 742 ;
743 [label="MMRCurrentAuctionAveragePrice <= 2993.5000\ngini = 0.5\nsamples = 2", shape="box"] ;
741 -> 743 ;
744 [label="gini = 0.0000\nsamples = 1\nvalue = [ 1.  0.  0.]", shape="box"] ;
743 -> 744 ;
745 [label="gini = 0.0000\nsamples = 1\nvalue = [ 0.  1.  0.]", shape="box"] ;
743 -> 745 ;
746 [label="gini = 0.0000\nsamples = 1\nvalue = [ 0.  0.  1.]", shape="box"] ;
740 -> 746 ;
747 [label="SubModel <= 299.0000\ngini = 0.375\nsamples = 8", shape="box"] ;
739 -> 747 ;
748 [label="gini = 0.0000\nsamples = 1\nvalue = [ 0.  0.  1.]", shape="box"] ;
747 -> 748 ;
749 [label="VehYear <= 2001.5000\ngini = 0.244897959184\nsamples = 7", shape="box"] ;
747 -> 749 ;
750 [label="gini = 0.0000\nsamples = 1\nvalue = [ 0.  0.  1.]", shape="box"] ;
749 -> 750 ;
751 [label="gini = 0.0000\nsamples = 6\nvalue = [ 6.  0.  0.]", shape="box"] ;
749 -> 751 ;
752 [label="MMRCurrentRetailAveragePrice <= 5083.0000\ngini = 0.291666666667\nsamples = 24", shape="box"] ;
738 -> 752 ;
753 [label="MMRCurrentRetailCleanPrice <= 6186.0000\ngini = 0.5\nsamples = 2", shape="box"] ;
752 -> 753 ;
754 [label="gini = 0.0000\nsamples = 1\nvalue = [ 0.  0.  1.]", shape="box"] ;
753 -> 754 ;
755 [label="gini = 0.0000\nsamples = 1\nvalue = [ 1.  0.  0.]", shape="box"] ;
753 -> 755 ;
756 [label="MMRCurrentRetailAveragePrice <= 6216.0000\ngini = 0.169421487603\nsamples = 22", shape="box"] ;
752 -> 756 ;
757 [label="MMRAcquisitionAuctionAveragePrice <= 2724.0000\ngini = 0.0907029478458\nsamples = 21", shape="box"] ;
756 -> 757 ;
758 [label="MMRAcquisitionAuctionCleanPrice <= 3693.5000\ngini = 0.5\nsamples = 2", shape="box"] ;
757 -> 758 ;
759 [label="gini = 0.0000\nsamples = 1\nvalue = [ 1.  0.  0.]", shape="box"] ;
758 -> 759 ;
760 [label="gini = 0.0000\nsamples = 1\nvalue = [ 0.  1.  0.]", shape="box"] ;
758 -> 760 ;
761 [label="gini = 0.0000\nsamples = 19\nvalue = [  0.  19.   0.]", shape="box"] ;
757 -> 761 ;
762 [label="gini = 0.0000\nsamples = 1\nvalue = [ 0.  0.  1.]", shape="box"] ;
756 -> 762 ;
763 [label="MMRCurrentRetailAveragePrice <= 6393.0000\ngini = 0.587890625\nsamples = 32", shape="box"] ;
725 -> 763 ;
764 [label="VehOdo <= 88884.5000\ngini = 0.468809073724\nsamples = 23", shape="box"] ;
763 -> 764 ;
765 [label="SubModel <= 70.5000\ngini = 0.34\nsamples = 20", shape="box"] ;
764 -> 765 ;
766 [label="MMRCurrentAuctionAveragePrice <= 3256.0000\ngini = 0.5\nsamples = 2", shape="box"] ;
765 -> 766 ;
767 [label="gini = 0.0000\nsamples = 1\nvalue = [ 1.  0.  0.]", shape="box"] ;
766 -> 767 ;
768 [label="gini = 0.0000\nsamples = 1\nvalue = [ 0.  1.  0.]", shape="box"] ;
766 -> 768 ;
769 [label="VehOdo <= 85833.5000\ngini = 0.203703703704\nsamples = 18", shape="box"] ;
765 -> 769 ;
770 [label="MMRCurrentRetailCleanPrice <= 7381.5000\ngini = 0.1171875\nsamples = 16", shape="box"] ;
769 -> 770 ;
771 [label="gini = 0.0000\nsamples = 14\nvalue = [  0.   0.  14.]", shape="box"] ;
770 -> 771 ;
772 [label="Color <= 7.5000\ngini = 0.5\nsamples = 2", shape="box"] ;
770 -> 772 ;
773 [label="gini = 0.0000\nsamples = 1\nvalue = [ 0.  0.  1.]", shape="box"] ;
772 -> 773 ;
774 [label="gini = 0.0000\nsamples = 1\nvalue = [ 0.  1.  0.]", shape="box"] ;
772 -> 774 ;
775 [label="MMRAcquisitionAuctionAveragePrice <= 3315.0000\ngini = 0.5\nsamples = 2", shape="box"] ;
769 -> 775 ;
776 [label="gini = 0.0000\nsamples = 1\nvalue = [ 1.  0.  0.]", shape="box"] ;
775 -> 776 ;
777 [label="gini = 0.0000\nsamples = 1\nvalue = [ 0.  0.  1.]", shape="box"] ;
775 -> 777 ;
778 [label="VehOdo <= 94548.5000\ngini = 0.444444444444\nsamples = 3", shape="box"] ;
764 -> 778 ;
779 [label="gini = 0.0000\nsamples = 2\nvalue = [ 0.  2.  0.]", shape="box"] ;
778 -> 779 ;
780 [label="gini = 0.0000\nsamples = 1\nvalue = [ 1.  0.  0.]", shape="box"] ;
778 -> 780 ;
781 [label="Model <= 475.5000\ngini = 0.641975308642\nsamples = 9", shape="box"] ;
763 -> 781 ;
782 [label="SubModel <= 561.0000\ngini = 0.444444444444\nsamples = 6", shape="box"] ;
781 -> 782 ;
783 [label="gini = 0.0000\nsamples = 2\nvalue = [ 0.  0.  2.]", shape="box"] ;
782 -> 783 ;
784 [label="gini = 0.0000\nsamples = 4\nvalue = [ 4.  0.  0.]", shape="box"] ;
782 -> 784 ;
785 [label="gini = 0.0000\nsamples = 3\nvalue = [ 0.  3.  0.]", shape="box"] ;
781 -> 785 ;
786 [label="VehYear <= 2002.5000\ngini = 0.532549621928\nsamples = 184", shape="box"] ;
648 -> 786 ;
787 [label="MMRCurrentAuctionAveragePrice <= 2514.0000\ngini = 0.576675849403\nsamples = 66", shape="box"] ;
786 -> 787 ;
788 [label="MMRCurrentRetailAveragePrice <= 5386.5000\ngini = 0.468809073724\nsamples = 23", shape="box"] ;
787 -> 788 ;
789 [label="VehOdo <= 68867.5000\ngini = 0.34\nsamples = 20", shape="box"] ;
788 -> 789 ;
790 [label="gini = 0.0000\nsamples = 2\nvalue = [ 0.  2.  0.]", shape="box"] ;
789 -> 790 ;
791 [label="MMRCurrentAuctionCleanPrice <= 3397.0000\ngini = 0.197530864198\nsamples = 18", shape="box"] ;
789 -> 791 ;
792 [label="gini = 0.0000\nsamples = 12\nvalue = [  0.   0.  12.]", shape="box"] ;
791 -> 792 ;
793 [label="MMRAcquisitionAuctionCleanPrice <= 3343.5000\ngini = 0.444444444444\nsamples = 6", shape="box"] ;
791 -> 793 ;
794 [label="gini = 0.0000\nsamples = 2\nvalue = [ 2.  0.  0.]", shape="box"] ;
793 -> 794 ;
795 [label="gini = 0.0000\nsamples = 4\nvalue = [ 0.  0.  4.]", shape="box"] ;
793 -> 795 ;
796 [label="Transmission <= 1.5000\ngini = 0.444444444444\nsamples = 3", shape="box"] ;
788 -> 796 ;
797 [label="gini = 0.0000\nsamples = 1\nvalue = [ 1.  0.  0.]", shape="box"] ;
796 -> 797 ;
798 [label="gini = 0.0000\nsamples = 2\nvalue = [ 0.  2.  0.]", shape="box"] ;
796 -> 798 ;
799 [label="MMRAcquisitonRetailCleanPrice <= 7530.0000\ngini = 0.5451595457\nsamples = 43", shape="box"] ;
787 -> 799 ;
800 [label="MMRAcquisitonRetailCleanPrice <= 7048.0000\ngini = 0.518626734843\nsamples = 37", shape="box"] ;
799 -> 800 ;
801 [label="MMRCurrentAuctionCleanPrice <= 3851.0000\ngini = 0.577883472057\nsamples = 29", shape="box"] ;
800 -> 801 ;
802 [label="MMRAcquisitionAuctionCleanPrice <= 3366.5000\ngini = 0.40625\nsamples = 8", shape="box"] ;
801 -> 802 ;
803 [label="gini = 0.0000\nsamples = 1\nvalue = [ 1.  0.  0.]", shape="box"] ;
802 -> 803 ;
804 [label="MMRAcquisitionAuctionAveragePrice <= 3014.5000\ngini = 0.244897959184\nsamples = 7", shape="box"] ;
802 -> 804 ;
805 [label="gini = 0.0000\nsamples = 6\nvalue = [ 0.  0.  6.]", shape="box"] ;
804 -> 805 ;
806 [label="gini = 0.0000\nsamples = 1\nvalue = [ 0.  1.  0.]", shape="box"] ;
804 -> 806 ;
807 [label="MMRAcquisitionRetailAveragePrice <= 5997.5000\ngini = 0.489795918367\nsamples = 21", shape="box"] ;
801 -> 807 ;
808 [label="Color <= 0.5000\ngini = 0.364197530864\nsamples = 18", shape="box"] ;
807 -> 808 ;
809 [label="VehOdo <= 75376.5000\ngini = 0.48\nsamples = 5", shape="box"] ;
808 -> 809 ;
810 [label="gini = 0.0000\nsamples = 2\nvalue = [ 0.  2.  0.]", shape="box"] ;
809 -> 810 ;
811 [label="gini = 0.0000\nsamples = 3\nvalue = [ 0.  0.  3.]", shape="box"] ;
809 -> 811 ;
812 [label="Nationality <= 0.5000\ngini = 0.14201183432\nsamples = 13", shape="box"] ;
808 -> 812 ;
813 [label="gini = 0.0000\nsamples = 1\nvalue = [ 1.  0.  0.]", shape="box"] ;
812 -> 813 ;
814 [label="gini = 0.0000\nsamples = 12\nvalue = [  0.  12.   0.]", shape="box"] ;
812 -> 814 ;
815 [label="WheelTypeID <= 1.0000\ngini = 0.444444444444\nsamples = 3", shape="box"] ;
807 -> 815 ;
816 [label="gini = 0.0000\nsamples = 1\nvalue = [ 1.  0.  0.]", shape="box"] ;
815 -> 816 ;
817 [label="gini = 0.0000\nsamples = 2\nvalue = [ 0.  0.  2.]", shape="box"] ;
815 -> 817 ;
818 [label="gini = 0.0000\nsamples = 8\nvalue = [ 0.  8.  0.]", shape="box"] ;
800 -> 818 ;
819 [label="VehOdo <= 92942.5000\ngini = 0.277777777778\nsamples = 6", shape="box"] ;
799 -> 819 ;
820 [label="gini = 0.0000\nsamples = 5\nvalue = [ 0.  0.  5.]", shape="box"] ;
819 -> 820 ;
821 [label="gini = 0.0000\nsamples = 1\nvalue = [ 0.  1.  0.]", shape="box"] ;
819 -> 821 ;
822 [label="WarrantyCost <= 1783.0000\ngini = 0.484199942545\nsamples = 118", shape="box"] ;
786 -> 822 ;
823 [label="MMRAcquisitionRetailAveragePrice <= 4133.0000\ngini = 0.438885884262\nsamples = 86", shape="box"] ;
822 -> 823 ;
824 [label="VehOdo <= 73735.5000\ngini = 0.59375\nsamples = 8", shape="box"] ;
823 -> 824 ;
825 [label="MMRAcquisitionAuctionCleanPrice <= 4075.5000\ngini = 0.375\nsamples = 4", shape="box"] ;
824 -> 825 ;
826 [label="gini = 0.0000\nsamples = 3\nvalue = [ 0.  0.  3.]", shape="box"] ;
825 -> 826 ;
827 [label="gini = 0.0000\nsamples = 1\nvalue = [ 1.  0.  0.]", shape="box"] ;
825 -> 827 ;
828 [label="gini = 0.0000\nsamples = 4\nvalue = [ 0.  4.  0.]", shape="box"] ;
824 -> 828 ;
829 [label="VehOdo <= 60628.5000\ngini = 0.397435897436\nsamples = 78", shape="box"] ;
823 -> 829 ;
830 [label="gini = 0.0000\nsamples = 1\nvalue = [ 0.  1.  0.]", shape="box"] ;
829 -> 830 ;
831 [label="SubModel <= 334.0000\ngini = 0.385225164446\nsamples = 77", shape="box"] ;
829 -> 831 ;
832 [label="MMRCurrentRetailCleanPrice <= 6735.0000\ngini = 0.571428571429\nsamples = 14", shape="box"] ;
831 -> 832 ;
833 [label="VehYear <= 2003.5000\ngini = 0.5\nsamples = 6", shape="box"] ;
832 -> 833 ;
834 [label="gini = 0.0000\nsamples = 4\nvalue = [ 4.  0.  0.]", shape="box"] ;
833 -> 834 ;
835 [label="Color <= 3.5000\ngini = 0.5\nsamples = 2", shape="box"] ;
833 -> 835 ;
836 [label="gini = 0.0000\nsamples = 1\nvalue = [ 0.  0.  1.]", shape="box"] ;
835 -> 836 ;
837 [label="gini = 0.0000\nsamples = 1\nvalue = [ 0.  1.  0.]", shape="box"] ;
835 -> 837 ;
838 [label="Color <= 11.0000\ngini = 0.21875\nsamples = 8", shape="box"] ;
832 -> 838 ;
839 [label="gini = 0.0000\nsamples = 7\nvalue = [ 0.  0.  7.]", shape="box"] ;
838 -> 839 ;
840 [label="gini = 0.0000\nsamples = 1\nvalue = [ 0.  1.  0.]", shape="box"] ;
838 -> 840 ;
841 [label="Trim <= 4.5000\ngini = 0.324514991182\nsamples = 63", shape="box"] ;
831 -> 841 ;
842 [label="MMRCurrentRetailCleanPrice <= 7222.0000\ngini = 0.5\nsamples = 4", shape="box"] ;
841 -> 842 ;
843 [label="gini = 0.0000\nsamples = 2\nvalue = [ 0.  2.  0.]", shape="box"] ;
842 -> 843 ;
844 [label="gini = 0.0000\nsamples = 2\nvalue = [ 0.  0.  2.]", shape="box"] ;
842 -> 844 ;
845 [label="VehOdo <= 66107.5000\ngini = 0.295317437518\nsamples = 59", shape="box"] ;
841 -> 845 ;
846 [label="VehOdo <= 62444.0000\ngini = 0.444444444444\nsamples = 3", shape="box"] ;
845 -> 846 ;
847 [label="gini = 0.0000\nsamples = 1\nvalue = [ 0.  0.  1.]", shape="box"] ;
846 -> 847 ;
848 [label="gini = 0.0000\nsamples = 2\nvalue = [ 0.  2.  0.]", shape="box"] ;
846 -> 848 ;
849 [label="Make <= 13.5000\ngini = 0.255102040816\nsamples = 56", shape="box"] ;
845 -> 849 ;
850 [label="VehOdo <= 68944.5000\ngini = 0.0739644970414\nsamples = 26", shape="box"] ;
849 -> 850 ;
851 [label="MMRAcquisitionAuctionCleanPrice <= 4082.5000\ngini = 0.375\nsamples = 4", shape="box"] ;
850 -> 851 ;
852 [label="gini = 0.0000\nsamples = 1\nvalue = [ 0.  1.  0.]", shape="box"] ;
851 -> 852 ;
853 [label="gini = 0.0000\nsamples = 3\nvalue = [ 0.  0.  3.]", shape="box"] ;
851 -> 853 ;
854 [label="gini = 0.0000\nsamples = 22\nvalue = [  0.   0.  22.]", shape="box"] ;
850 -> 854 ;
855 [label="MMRCurrentRetailCleanPrice <= 7561.0000\ngini = 0.384444444444\nsamples = 30", shape="box"] ;
849 -> 855 ;
856 [label="VehOdo <= 94601.0000\ngini = 0.303571428571\nsamples = 28", shape="box"] ;
855 -> 856 ;
857 [label="Color <= 1.5000\ngini = 0.260631001372\nsamples = 27", shape="box"] ;
856 -> 857 ;
858 [label="MMRAcquisitionAuctionCleanPrice <= 3580.5000\ngini = 0.486111111111\nsamples = 12", shape="box"] ;
857 -> 858 ;
859 [label="MMRAcquisitionAuctionAveragePrice <= 2735.0000\ngini = 0.444444444444\nsamples = 3", shape="box"] ;
858 -> 859 ;
860 [label="gini = 0.0000\nsamples = 1\nvalue = [ 0.  1.  0.]", shape="box"] ;
859 -> 860 ;
861 [label="gini = 0.0000\nsamples = 2\nvalue = [ 2.  0.  0.]", shape="box"] ;
859 -> 861 ;
862 [label="MMRAcquisitionAuctionAveragePrice <= 3476.5000\ngini = 0.197530864198\nsamples = 9", shape="box"] ;
858 -> 862 ;
863 [label="gini = 0.0000\nsamples = 8\nvalue = [ 0.  0.  8.]", shape="box"] ;
862 -> 863 ;
864 [label="gini = 0.0000\nsamples = 1\nvalue = [ 1.  0.  0.]", shape="box"] ;
862 -> 864 ;
865 [label="gini = 0.0000\nsamples = 15\nvalue = [  0.   0.  15.]", shape="box"] ;
857 -> 865 ;
866 [label="gini = 0.0000\nsamples = 1\nvalue = [ 1.  0.  0.]", shape="box"] ;
856 -> 866 ;
867 [label="gini = 0.0000\nsamples = 2\nvalue = [ 0.  2.  0.]", shape="box"] ;
855 -> 867 ;
868 [label="MMRAcquisitonRetailCleanPrice <= 6781.5000\ngini = 0.525390625\nsamples = 32", shape="box"] ;
822 -> 868 ;
869 [label="WarrantyCost <= 1864.5000\ngini = 0.3984375\nsamples = 16", shape="box"] ;
868 -> 869 ;
870 [label="Model <= 643.0000\ngini = 0.5\nsamples = 2", shape="box"] ;
869 -> 870 ;
871 [label="gini = 0.0000\nsamples = 1\nvalue = [ 1.  0.  0.]", shape="box"] ;
870 -> 871 ;
872 [label="gini = 0.0000\nsamples = 1\nvalue = [ 0.  1.  0.]", shape="box"] ;
870 -> 872 ;
873 [label="Model <= 882.0000\ngini = 0.244897959184\nsamples = 14", shape="box"] ;
869 -> 873 ;
874 [label="gini = 0.0000\nsamples = 11\nvalue = [  0.   0.  11.]", shape="box"] ;
873 -> 874 ;
875 [label="Trim <= 34.5000\ngini = 0.444444444444\nsamples = 3", shape="box"] ;
873 -> 875 ;
876 [label="gini = 0.0000\nsamples = 1\nvalue = [ 0.  0.  1.]", shape="box"] ;
875 -> 876 ;
877 [label="gini = 0.0000\nsamples = 2\nvalue = [ 0.  2.  0.]", shape="box"] ;
875 -> 877 ;
878 [label="MMRCurrentRetailAveragePrice <= 6143.5000\ngini = 0.4296875\nsamples = 16", shape="box"] ;
868 -> 878 ;
879 [label="MMRCurrentRetailAveragePrice <= 5825.5000\ngini = 0.493827160494\nsamples = 9", shape="box"] ;
878 -> 879 ;
880 [label="MMRCurrentAuctionCleanPrice <= 3521.0000\ngini = 0.32\nsamples = 5", shape="box"] ;
879 -> 880 ;
881 [label="gini = 0.0000\nsamples = 1\nvalue = [ 0.  0.  1.]", shape="box"] ;
880 -> 881 ;
882 [label="gini = 0.0000\nsamples = 4\nvalue = [ 0.  4.  0.]", shape="box"] ;
880 -> 882 ;
883 [label="gini = 0.0000\nsamples = 4\nvalue = [ 0.  0.  4.]", shape="box"] ;
879 -> 883 ;
884 [label="gini = 0.0000\nsamples = 7\nvalue = [ 0.  7.  0.]", shape="box"] ;
878 -> 884 ;
885 [label="gini = 0.0000\nsamples = 4\nvalue = [ 0.  4.  0.]", shape="box"] ;
647 -> 885 ;
886 [label="WarrantyCost <= 1750.0000\ngini = 0.277777777778\nsamples = 6", shape="box"] ;
646 -> 886 ;
887 [label="gini = 0.0000\nsamples = 1\nvalue = [ 1.  0.  0.]", shape="box"] ;
886 -> 887 ;
888 [label="gini = 0.0000\nsamples = 5\nvalue = [ 0.  5.  0.]", shape="box"] ;
886 -> 888 ;
889 [label="MMRAcquisitonRetailCleanPrice <= 4601.5000\ngini = 0.504444444444\nsamples = 30", shape="box"] ;
645 -> 889 ;
890 [label="MMRAcquisitionRetailAveragePrice <= 3672.0000\ngini = 0.277777777778\nsamples = 6", shape="box"] ;
889 -> 890 ;
891 [label="gini = 0.0000\nsamples = 5\nvalue = [ 0.  0.  5.]", shape="box"] ;
890 -> 891 ;
892 [label="gini = 0.0000\nsamples = 1\nvalue = [ 1.  0.  0.]", shape="box"] ;
890 -> 892 ;
893 [label="MMRCurrentAuctionCleanPrice <= 2852.5000\ngini = 0.34375\nsamples = 24", shape="box"] ;
889 -> 893 ;
894 [label="gini = 0.0000\nsamples = 2\nvalue = [ 0.  0.  2.]", shape="box"] ;
893 -> 894 ;
895 [label="MMRAcquisitionRetailAveragePrice <= 6704.0000\ngini = 0.243801652893\nsamples = 22", shape="box"] ;
893 -> 895 ;
896 [label="VehYear <= 2004.5000\ngini = 0.172335600907\nsamples = 21", shape="box"] ;
895 -> 896 ;
897 [label="gini = 0.0000\nsamples = 16\nvalue = [  0.  16.   0.]", shape="box"] ;
896 -> 897 ;
898 [label="WarrantyCost <= 872.5000\ngini = 0.48\nsamples = 5", shape="box"] ;
896 -> 898 ;
899 [label="gini = 0.0000\nsamples = 2\nvalue = [ 0.  0.  2.]", shape="box"] ;
898 -> 899 ;
900 [label="gini = 0.0000\nsamples = 3\nvalue = [ 0.  3.  0.]", shape="box"] ;
898 -> 900 ;
901 [label="gini = 0.0000\nsamples = 1\nvalue = [ 1.  0.  0.]", shape="box"] ;
895 -> 901 ;
902 [label="SubModel <= 204.0000\ngini = 0.524817839503\nsamples = 143", shape="box"] ;
588 -> 902 ;
903 [label="MMRCurrentRetailCleanPrice <= 7634.5000\ngini = 0.525951557093\nsamples = 17", shape="box"] ;
902 -> 903 ;
904 [label="MMRCurrentAuctionCleanPrice <= 4243.5000\ngini = 0.355029585799\nsamples = 13", shape="box"] ;
903 -> 904 ;
905 [label="gini = 0.0000\nsamples = 7\nvalue = [ 0.  7.  0.]", shape="box"] ;
904 -> 905 ;
906 [label="Trim <= 27.5000\ngini = 0.5\nsamples = 6", shape="box"] ;
904 -> 906 ;
907 [label="SubModel <= 141.0000\ngini = 0.375\nsamples = 4", shape="box"] ;
906 -> 907 ;
908 [label="gini = 0.0000\nsamples = 3\nvalue = [ 0.  0.  3.]", shape="box"] ;
907 -> 908 ;
909 [label="gini = 0.0000\nsamples = 1\nvalue = [ 0.  1.  0.]", shape="box"] ;
907 -> 909 ;
910 [label="gini = 0.0000\nsamples = 2\nvalue = [ 0.  2.  0.]", shape="box"] ;
906 -> 910 ;
911 [label="VehOdo <= 82823.0000\ngini = 0.375\nsamples = 4", shape="box"] ;
903 -> 911 ;
912 [label="gini = 0.0000\nsamples = 3\nvalue = [ 0.  0.  3.]", shape="box"] ;
911 -> 912 ;
913 [label="gini = 0.0000\nsamples = 1\nvalue = [ 1.  0.  0.]", shape="box"] ;
911 -> 913 ;
914 [label="MMRCurrentRetailCleanPrice <= 6343.0000\ngini = 0.498740236835\nsamples = 126", shape="box"] ;
902 -> 914 ;
915 [label="gini = 0.0000\nsamples = 3\nvalue = [ 0.  3.  0.]", shape="box"] ;
914 -> 915 ;
916 [label="Size <= 7.0000\ngini = 0.485293145614\nsamples = 123", shape="box"] ;
914 -> 916 ;
917 [label="Transmission <= 1.5000\ngini = 0.466633712308\nsamples = 119", shape="box"] ;
916 -> 917 ;
918 [label="MMRAcquisitonRetailCleanPrice <= 8148.5000\ngini = 0.489795918367\nsamples = 7", shape="box"] ;
917 -> 918 ;
919 [label="gini = 0.0000\nsamples = 4\nvalue = [ 4.  0.  0.]", shape="box"] ;
918 -> 919 ;
920 [label="gini = 0.0000\nsamples = 3\nvalue = [ 0.  0.  3.]", shape="box"] ;
918 -> 920 ;
921 [label="MMRAcquisitionRetailAveragePrice <= 7901.0000\ngini = 0.441485969388\nsamples = 112", shape="box"] ;
917 -> 921 ;
922 [label="WarrantyCost <= 1394.5000\ngini = 0.411972789116\nsamples = 105", shape="box"] ;
921 -> 922 ;
923 [label="MMRAcquisitonRetailCleanPrice <= 9103.5000\ngini = 0.466857817507\nsamples = 77", shape="box"] ;
922 -> 923 ;
924 [label="MMRCurrentRetailAveragePrice <= 6020.0000\ngini = 0.439429012346\nsamples = 72", shape="box"] ;
923 -> 924 ;
925 [label="VehOdo <= 89193.5000\ngini = 0.567107750473\nsamples = 23", shape="box"] ;
924 -> 925 ;
926 [label="MMRAcquisitonRetailCleanPrice <= 8212.0000\ngini = 0.586419753086\nsamples = 18", shape="box"] ;
925 -> 926 ;
927 [label="MMRAcquisitionAuctionCleanPrice <= 4593.0000\ngini = 0.37037037037\nsamples = 9", shape="box"] ;
926 -> 927 ;
928 [label="Nationality <= 2.0000\ngini = 0.21875\nsamples = 8", shape="box"] ;
927 -> 928 ;
929 [label="gini = 0.0000\nsamples = 7\nvalue = [ 0.  7.  0.]", shape="box"] ;
928 -> 929 ;
930 [label="gini = 0.0000\nsamples = 1\nvalue = [ 0.  0.  1.]", shape="box"] ;
928 -> 930 ;
931 [label="gini = 0.0000\nsamples = 1\nvalue = [ 1.  0.  0.]", shape="box"] ;
927 -> 931 ;
932 [label="MMRAcquisitionAuctionCleanPrice <= 6455.5000\ngini = 0.493827160494\nsamples = 9", shape="box"] ;
926 -> 932 ;
933 [label="VehYear <= 2004.5000\ngini = 0.375\nsamples = 8", shape="box"] ;
932 -> 933 ;
934 [label="gini = 0.0000\nsamples = 5\nvalue = [ 0.  0.  5.]", shape="box"] ;
933 -> 934 ;
935 [label="MMRAcquisitionAuctionCleanPrice <= 5423.0000\ngini = 0.444444444444\nsamples = 3", shape="box"] ;
933 -> 935 ;
936 [label="gini = 0.0000\nsamples = 2\nvalue = [ 0.  2.  0.]", shape="box"] ;
935 -> 936 ;
937 [label="gini = 0.0000\nsamples = 1\nvalue = [ 0.  0.  1.]", shape="box"] ;
935 -> 937 ;
938 [label="gini = 0.0000\nsamples = 1\nvalue = [ 1.  0.  0.]", shape="box"] ;
932 -> 938 ;
939 [label="gini = 0.0000\nsamples = 5\nvalue = [ 0.  0.  5.]", shape="box"] ;
925 -> 939 ;
940 [label="WarrantyCost <= 472.0000\ngini = 0.338192419825\nsamples = 49", shape="box"] ;
924 -> 940 ;
941 [label="WheelTypeID <= 1.5000\ngini = 0.5\nsamples = 2", shape="box"] ;
940 -> 941 ;
942 [label="gini = 0.0000\nsamples = 1\nvalue = [ 0.  1.  0.]", shape="box"] ;
941 -> 942 ;
943 [label="gini = 0.0000\nsamples = 1\nvalue = [ 1.  0.  0.]", shape="box"] ;
941 -> 943 ;
944 [label="WheelTypeID <= 0.5000\ngini = 0.288818469896\nsamples = 47", shape="box"] ;
940 -> 944 ;
945 [label="gini = 0.0000\nsamples = 1\nvalue = [ 0.  1.  0.]", shape="box"] ;
944 -> 945 ;
946 [label="Make <= 2.5000\ngini = 0.26370510397\nsamples = 46", shape="box"] ;
944 -> 946 ;
947 [label="gini = 0.0000\nsamples = 1\nvalue = [ 0.  1.  0.]", shape="box"] ;
946 -> 947 ;
948 [label="MMRAcquisitonRetailCleanPrice <= 8151.5000\ngini = 0.236049382716\nsamples = 45", shape="box"] ;
946 -> 948 ;
949 [label="gini = 0.0000\nsamples = 16\nvalue = [  0.   0.  16.]", shape="box"] ;
948 -> 949 ;
950 [label="MMRAcquisitonRetailCleanPrice <= 8188.5000\ngini = 0.340071343639\nsamples = 29", shape="box"] ;
948 -> 950 ;
951 [label="gini = 0.0000\nsamples = 1\nvalue = [ 1.  0.  0.]", shape="box"] ;
950 -> 951 ;
952 [label="MMRAcquisitionAuctionCleanPrice <= 4822.5000\ngini = 0.293367346939\nsamples = 28", shape="box"] ;
950 -> 952 ;
953 [label="WheelTypeID <= 1.5000\ngini = 0.444444444444\nsamples = 15", shape="box"] ;
952 -> 953 ;
954 [label="MMRCurrentRetailCleanPrice <= 7325.5000\ngini = 0.197530864198\nsamples = 9", shape="box"] ;
953 -> 954 ;
955 [label="gini = 0.0000\nsamples = 1\nvalue = [ 0.  1.  0.]", shape="box"] ;
954 -> 955 ;
956 [label="gini = 0.0000\nsamples = 8\nvalue = [ 0.  0.  8.]", shape="box"] ;
954 -> 956 ;
957 [label="MMRCurrentRetailAveragePrice <= 6185.0000\ngini = 0.444444444444\nsamples = 6", shape="box"] ;
953 -> 957 ;
958 [label="gini = 0.0000\nsamples = 2\nvalue = [ 0.  0.  2.]", shape="box"] ;
957 -> 958 ;
959 [label="gini = 0.0000\nsamples = 4\nvalue = [ 0.  4.  0.]", shape="box"] ;
957 -> 959 ;
960 [label="gini = 0.0000\nsamples = 13\nvalue = [  0.   0.  13.]", shape="box"] ;
952 -> 960 ;
961 [label="Make <= 23.0000\ngini = 0.32\nsamples = 5", shape="box"] ;
923 -> 961 ;
962 [label="gini = 0.0000\nsamples = 4\nvalue = [ 0.  4.  0.]", shape="box"] ;
961 -> 962 ;
963 [label="gini = 0.0000\nsamples = 1\nvalue = [ 0.  0.  1.]", shape="box"] ;
961 -> 963 ;
964 [label="Model <= 180.5000\ngini = 0.196428571429\nsamples = 28", shape="box"] ;
922 -> 964 ;
965 [label="VehOdo <= 87339.5000\ngini = 0.53125\nsamples = 8", shape="box"] ;
964 -> 965 ;
966 [label="MMRCurrentRetailCleanPrice <= 7281.0000\ngini = 0.408163265306\nsamples = 7", shape="box"] ;
965 -> 966 ;
967 [label="gini = 0.0000\nsamples = 4\nvalue = [ 0.  0.  4.]", shape="box"] ;
966 -> 967 ;
968 [label="MMRAcquisitionAuctionCleanPrice <= 4686.5000\ngini = 0.444444444444\nsamples = 3", shape="box"] ;
966 -> 968 ;
969 [label="gini = 0.0000\nsamples = 2\nvalue = [ 0.  2.  0.]", shape="box"] ;
968 -> 969 ;
970 [label="gini = 0.0000\nsamples = 1\nvalue = [ 0.  0.  1.]", shape="box"] ;
968 -> 970 ;
971 [label="gini = 0.0000\nsamples = 1\nvalue = [ 1.  0.  0.]", shape="box"] ;
965 -> 971 ;
972 [label="gini = 0.0000\nsamples = 20\nvalue = [  0.   0.  20.]", shape="box"] ;
964 -> 972 ;
973 [label="MMRAcquisitionRetailAveragePrice <= 8323.0000\ngini = 0.571428571429\nsamples = 7", shape="box"] ;
921 -> 973 ;
974 [label="MMRCurrentRetailAveragePrice <= 6987.0000\ngini = 0.32\nsamples = 5", shape="box"] ;
973 -> 974 ;
975 [label="gini = 0.0000\nsamples = 4\nvalue = [ 0.  4.  0.]", shape="box"] ;
974 -> 975 ;
976 [label="gini = 0.0000\nsamples = 1\nvalue = [ 1.  0.  0.]", shape="box"] ;
974 -> 976 ;
977 [label="gini = 0.0000\nsamples = 2\nvalue = [ 0.  0.  2.]", shape="box"] ;
973 -> 977 ;
978 [label="MMRAcquisitonRetailCleanPrice <= 8987.5000\ngini = 0.375\nsamples = 4", shape="box"] ;
916 -> 978 ;
979 [label="gini = 0.0000\nsamples = 3\nvalue = [ 3.  0.  0.]", shape="box"] ;
978 -> 979 ;
980 [label="gini = 0.0000\nsamples = 1\nvalue = [ 0.  0.  1.]", shape="box"] ;
978 -> 980 ;
981 [label="MMRCurrentRetailCleanPrice <= 6234.0000\ngini = 0.404708012675\nsamples = 47", shape="box"] ;
587 -> 981 ;
982 [label="MMRCurrentRetailCleanPrice <= 6128.5000\ngini = 0.625\nsamples = 12", shape="box"] ;
981 -> 982 ;
983 [label="MMRAcquisitionRetailAveragePrice <= 5310.0000\ngini = 0.592592592593\nsamples = 9", shape="box"] ;
982 -> 983 ;
984 [label="Trim <= 48.0000\ngini = 0.64\nsamples = 5", shape="box"] ;
983 -> 984 ;
985 [label="MMRCurrentAuctionCleanPrice <= 2840.5000\ngini = 0.444444444444\nsamples = 3", shape="box"] ;
984 -> 985 ;
986 [label="gini = 0.0000\nsamples = 1\nvalue = [ 0.  0.  1.]", shape="box"] ;
985 -> 986 ;
987 [label="gini = 0.0000\nsamples = 2\nvalue = [ 2.  0.  0.]", shape="box"] ;
985 -> 987 ;
988 [label="gini = 0.0000\nsamples = 2\nvalue = [ 0.  2.  0.]", shape="box"] ;
984 -> 988 ;
989 [label="gini = 0.0000\nsamples = 4\nvalue = [ 0.  0.  4.]", shape="box"] ;
983 -> 989 ;
990 [label="gini = 0.0000\nsamples = 3\nvalue = [ 0.  3.  0.]", shape="box"] ;
982 -> 990 ;
991 [label="MMRAcquisitionRetailAveragePrice <= 7162.0000\ngini = 0.251428571429\nsamples = 35", shape="box"] ;
981 -> 991 ;
992 [label="MMRAcquisitionAuctionCleanPrice <= 3078.5000\ngini = 0.173828125\nsamples = 32", shape="box"] ;
991 -> 992 ;
993 [label="gini = 0.0000\nsamples = 1\nvalue = [ 0.  1.  0.]", shape="box"] ;
992 -> 993 ;
994 [label="MMRAcquisitonRetailCleanPrice <= 5959.0000\ngini = 0.122788761707\nsamples = 31", shape="box"] ;
992 -> 994 ;
995 [label="WarrantyCost <= 1318.0000\ngini = 0.444444444444\nsamples = 3", shape="box"] ;
994 -> 995 ;
996 [label="gini = 0.0000\nsamples = 2\nvalue = [ 0.  0.  2.]", shape="box"] ;
995 -> 996 ;
997 [label="gini = 0.0000\nsamples = 1\nvalue = [ 1.  0.  0.]", shape="box"] ;
995 -> 997 ;
998 [label="Color <= 12.0000\ngini = 0.0688775510204\nsamples = 28", shape="box"] ;
994 -> 998 ;
999 [label="gini = 0.0000\nsamples = 23\nvalue = [  0.   0.  23.]", shape="box"] ;
998 -> 999 ;
1000 [label="MMRAcquisitonRetailCleanPrice <= 6913.0000\ngini = 0.32\nsamples = 5", shape="box"] ;
998 -> 1000 ;
1001 [label="gini = 0.0000\nsamples = 1\nvalue = [ 0.  1.  0.]", shape="box"] ;
1000 -> 1001 ;
1002 [label="gini = 0.0000\nsamples = 4\nvalue = [ 0.  0.  4.]", shape="box"] ;
1000 -> 1002 ;
1003 [label="Color <= 9.0000\ngini = 0.444444444444\nsamples = 3", shape="box"] ;
991 -> 1003 ;
1004 [label="gini = 0.0000\nsamples = 2\nvalue = [ 0.  2.  0.]", shape="box"] ;
1003 -> 1004 ;
1005 [label="gini = 0.0000\nsamples = 1\nvalue = [ 0.  0.  1.]", shape="box"] ;
1003 -> 1005 ;
1006 [label="MMRCurrentAuctionAveragePrice <= 2535.0000\ngini = 0.483265306122\nsamples = 35", shape="box"] ;
586 -> 1006 ;
1007 [label="gini = 0.0000\nsamples = 3\nvalue = [ 0.  0.  3.]", shape="box"] ;
1006 -> 1007 ;
1008 [label="MMRAcquisitonRetailCleanPrice <= 8310.5000\ngini = 0.431640625\nsamples = 32", shape="box"] ;
1006 -> 1008 ;
